-9.660856798291206360e-03
-2.622772171889664605e-06
4.523047059774398804e-02
-1.024561697704484686e-06
-7.055706344544887543e-03
-9.141687769442796707e-06
2.294434153782276553e-08
-2.007428929209709167e-02
1.539303921163082123e-02
8.093866910030556028e-08
7.014368195086717606e-03
7.268951740115880966e-03
-1.665124855935573578e-02
5.268698185682296753e-02
1.587032616434669308e-09
-1.972668617963790894e-02
-1.134244073182344437e-02
-3.258959111462900182e-07
-2.852470800280570984e-02
1.007732376456260681e-02
-3.702258225530385971e-03
-7.373457774519920349e-03
1.083561542714051029e-07
-1.559700457676171936e-08
-2.157239988446235657e-02
4.583013080150522001e-09
-7.298325277460548932e-10
2.632188796997070312e-02
-1.404015165462624282e-06
1.459726917119041900e-08
-2.418690361082553864e-03
-1.013589567833150795e-08
4.626532271504402161e-02
4.542127624154090881e-02
-3.424791991710662842e-02
3.551011706903750564e-09
-7.048227824270725250e-03
-1.750735193490982056e-02
-2.518692519515752792e-03
-1.946291700005531311e-02
3.679391811601817608e-04
-5.031736693972277408e-10
-3.469587639415294689e-08
9.431324899196624756e-02
2.453978166505610403e-11
1.968679134733974934e-04
-1.101787256629904732e-05
-2.183783749387657735e-07
-4.598336431627103593e-07
-7.092393872198954341e-08
-3.686446696519851685e-02
6.843404065648428514e-08
-9.780677601156639867e-08
-4.684190824627876282e-02
-1.099858526140451431e-02
4.447565871146252903e-08
7.932827728041047521e-09
4.503552872847649269e-07
3.438378054498869574e-11
-9.737455286085605621e-03
-7.324047037400305271e-04
-3.404483944177627563e-02
2.495789963585792748e-10
-7.345472928136587143e-03
-8.331817298312671483e-06
4.826982691884040833e-02
1.321701970091737621e-09
-8.477963507175445557e-03
-4.007755964994430542e-02
1.775030789019638178e-08
4.173731431365013123e-03
-6.622017361223697662e-03
-8.806332374433623045e-08
9.883287965806175634e-09
-1.745056547224521637e-02
-1.970709674060344696e-02
-5.120537243783473969e-03
-7.390965765807777643e-05
3.620668780058622360e-03
-4.912055207029197845e-09
-8.146334096181817586e-08
-1.683767884969711304e-02
2.650178503245115280e-03
9.814394630325296021e-09
2.464177271122025559e-07
-1.386417634785175323e-02
-1.399008184671401978e-02
1.025293716594433135e-08
-4.254270344972610474e-02
2.946507748902149615e-08
-6.379992701113224030e-04
2.442773664370179176e-03
2.000110953304101713e-06
-8.416580967605113983e-03
2.079533878429629112e-09
1.181253708182339324e-07
-1.185381598770618439e-02
-2.400727756321430206e-02
2.594805264379829168e-04
-4.775628781317209359e-10
-5.288953275339736138e-07
-2.073285914957523346e-02
-6.177646666765213013e-02
-2.893068268895149231e-02
2.838834375143051147e-02
2.847088268026709557e-03
-4.387088585644960403e-03
-3.562714671716094017e-03
4.025972262024879456e-02
-4.565607011318206787e-02
1.734405173920094967e-03
9.708778001368045807e-03
1.113516185432672501e-02
-6.840680725872516632e-03
-3.957929555326700211e-03
-4.424028098583221436e-02
-1.295422748626151588e-06
-4.372326657176017761e-02
4.941714927554130554e-03
-3.422098606824874878e-02
1.184074580669403076e-02
4.922957330677490972e-08
2.901063389515456947e-08
4.458660725504159927e-03
3.072265775116989062e-09
-1.113214352699287701e-06
2.009341306984424591e-02
3.704854100942611694e-02
