-4.196159541606903076e-02,3.521682003793102922e-07,-2.587616071105003357e-02,2.230022619187366217e-05,1.959771849215030670e-02,-4.965605330653488636e-05,-1.633760575714404695e-07,4.877721518278121948e-02,-9.843420982360839844e-02,-2.507085355318849906e-06,-6.945172697305679321e-02,-7.181718200445175171e-02,-3.395763039588928223e-02,-1.291872840374708176e-02,-1.647486946865228674e-08,-3.544031456112861633e-02,-5.730492249131202698e-02,-1.259961663890862837e-06,-3.940759226679801941e-02,-6.797011010348796844e-03,-1.383636728860437870e-03,-3.183336928486824036e-02,9.862108527158852667e-06,-7.099440608726581559e-06,1.142307836562395096e-02,5.316830353763180028e-08,1.973685881395681463e-09,8.195249829441308975e-04,2.014438505284488201e-04,-7.463648032945968680e-10,1.022611837834119797e-02,1.443858366201311583e-07,-6.970147788524627686e-02,-1.413586735725402832e-01,-7.243851572275161743e-02,-1.412892469687676567e-08,-2.307670749723911285e-02,-4.394093155860900879e-02,4.370348155498504639e-02,-7.567623257637023926e-02,2.980787120759487152e-02,-2.373451712944785186e-10,6.716680900353821926e-07,-2.546411752700805664e-01,3.222102923014502629e-12,1.982935005798935890e-03,-5.708304161089472473e-05,-1.063043018803000450e-04,-1.326648780377581716e-04,8.896782333067676518e-07,-4.571723192930221558e-02,1.564439799039973877e-06,2.017542328758281656e-06,2.635139226913452148e-02,-1.019742563366889954e-01,-1.938537707246723585e-06,6.649332107144800830e-08,1.286556362174451351e-04,-3.511057000693540431e-10,3.946216776967048645e-02,1.301346346735954285e-02,2.644576691091060638e-02,-2.576424185107839548e-09,-1.068849489092826843e-02,3.725338319782167673e-05,-1.146604791283607483e-01,1.383309022884304795e-08,-5.166442692279815674e-02,-4.575770720839500427e-02,-1.531261659692972898e-07,-9.751964360475540161e-02,-7.175993919372558594e-02,5.079504603600071277e-07,9.976429282687604427e-07,-1.091406866908073425e-01,-4.831947013735771179e-02,-5.110572651028633118e-02,2.956634561996906996e-04,4.270216822624206543e-02,-1.463054218220349867e-06,-4.425693589382717619e-07,-4.564147815108299255e-02,-1.117231994867324829e-01,-2.587499992046105035e-08,-4.228120815241709352e-06,-4.635488241910934448e-02,-8.812557160854339600e-02,-6.302186079665261786e-07,5.072480067610740662e-02,7.523271392528840806e-07,6.890799384564161301e-03,-3.123115375638008118e-02,-5.647223224514164031e-05,-8.573447912931442261e-02,-2.152684785983183247e-08,-1.160521151177817956e-06,3.253225982189178467e-02,-1.464527696371078491e-01,6.318560801446437836e-03,5.848928008589382443e-09,9.765353752300143242e-06,-4.755171388387680054e-02,-9.448818117380142212e-02,-1.322808712720870972e-01,-5.300905182957649231e-02,-6.054968759417533875e-02,-3.932493925094604492e-02,1.757809706032276154e-02,-7.284929603338241577e-02,-4.536117240786552429e-02,-3.151844069361686707e-02,-5.354062840342521667e-02,-5.020782351493835449e-02,-9.114882349967956543e-02,3.030254971235990524e-03,5.291003361344337463e-02,-2.153519890271127224e-04,-4.998781532049179077e-02,5.238438770174980164e-02,2.745254524052143097e-02,-3.682560473680496216e-02,-7.052949513308703899e-07,3.945601534383058606e-08,-2.867649123072624207e-02,2.090632200690833997e-08,-1.331080784439109266e-05,2.588097937405109406e-03,-6.265162490308284760e-03
4.433799162507057190e-02,-2.338974354643141851e-06,7.605230808258056641e-02,1.761894282026332803e-06,1.654824241995811462e-03,1.073353851097635925e-04,-1.183972244689357467e-07,-6.126921623945236206e-02,1.888950914144515991e-02,6.545719202222244348e-07,-2.003967761993408203e-02,-8.992294222116470337e-02,-3.826558217406272888e-02,8.831266313791275024e-02,2.595663772808620706e-08,-6.219724938273429871e-02,-3.601033613085746765e-02,1.557364299742403091e-07,2.443752624094486237e-02,1.349847204983234406e-02,-1.017183903604745865e-02,-3.645884990692138672e-02,1.481969138694694266e-05,3.052601726949433214e-08,-4.767024144530296326e-02,1.017060879959785780e-09,-1.188681264530089265e-09,5.628957971930503845e-02,1.419454520146246068e-06,2.011977642268902855e-07,1.277029886841773987e-02,-4.017195021077668571e-09,-4.406313598155975342e-02,5.240438878536224365e-02,5.332288565114140511e-04,3.493297384693505592e-08,8.092966862022876740e-03,2.421810291707515717e-02,-2.155741490423679352e-02,7.580531761050224304e-03,2.018224075436592102e-02,-1.539082611357045494e-10,1.006539740444623021e-08,-1.324843894690275192e-02,-7.486350948882058987e-12,-3.463126253336668015e-03,3.456043714322731830e-06,-5.027866427553817630e-05,8.543057674614829011e-07,-2.691266729470953578e-07,-1.073243096470832825e-02,-6.682090969434284489e-08,1.786752079624420730e-07,-3.087965026497840881e-02,1.562873274087905884e-02,1.096368578146211803e-06,-7.963345751704764552e-07,-7.314613412745529786e-07,2.956900696515774030e-11,-6.054140999913215637e-02,2.305063884705305099e-03,-4.709229990839958191e-02,-6.919352868450800997e-10,1.841866970062255859e-02,-8.522918506059795618e-06,-6.837116181850433350e-02,2.156654188567586061e-09,3.459162637591362000e-02,-2.652160637080669403e-02,-8.101390669423835789e-09,2.315016835927963257e-02,-1.381873385980725288e-03,-5.317680802363611292e-07,3.135008697086050233e-08,4.870463162660598755e-03,-6.778880208730697632e-02,-4.330967366695404053e-02,-1.324477489106357098e-04,-5.322575941681861877e-02,1.217866127944944310e-07,9.939356004906585440e-08,-7.421975582838058472e-02,-9.045913815498352051e-02,3.415287608277139952e-08,3.794909389398526400e-06,5.370020121335983276e-02,-3.135537356138229370e-02,6.616112813162544626e-08,-5.191424116492271423e-02,-4.064792946678608132e-09,1.879462972283363342e-03,1.710149087011814117e-02,-9.595279152563307434e-06,-5.620449036359786987e-02,2.303364787792361312e-08,1.984417394851334393e-06,1.915154233574867249e-02,-1.353550702333450317e-03,5.225178319960832596e-03,-4.065389413998587997e-10,5.884566007807734422e-07,-3.054734319448471069e-02,2.787204273045063019e-02,2.513202838599681854e-03,9.889443963766098022e-02,2.846303395926952362e-02,1.374786905944347382e-02,-1.227508485317230225e-02,4.177809879183769226e-02,-5.949115008115768433e-02,-7.722110487520694733e-03,5.455702170729637146e-02,1.020188443362712860e-02,-1.983539946377277374e-02,-1.899150200188159943e-02,-7.762262225151062012e-02,-8.747496176511049271e-04,-3.559361770749092102e-02,-2.534914761781692505e-02,-5.031120032072067261e-02,4.041354730725288391e-02,4.321320261624350678e-07,2.152729905446904013e-07,8.941386826336383820e-03,-2.659207076760594646e-08,1.436554498468467500e-06,1.155197154730558395e-02,4.007245227694511414e-02
5.046394094824790955e-02,2.925411536125466228e-06,1.031764522194862366e-01,9.727134965942241251e-06,-3.240454243496060371e-04,5.195360427023842931e-05,-1.376836280542192981e-07,-6.559863686561584473e-02,-4.683456942439079285e-02,7.293816679521114565e-07,-6.265269219875335693e-02,-9.779699146747589111e-02,3.256718814373016357e-02,-1.383140683174133301e-01,3.592552388909098227e-08,-1.512004714459180832e-02,-8.610505610704421997e-02,-3.966334247706981841e-07,9.945454075932502747e-04,1.737591251730918884e-02,8.771336637437343597e-03,-9.004877507686614990e-02,5.294047696224879473e-06,8.759324146012659185e-07,-3.085399791598320007e-02,4.630026850804824790e-08,-1.142877681381548882e-09,4.091747477650642395e-02,3.068293608521344140e-06,2.022573113436010317e-07,1.369698159396648407e-02,7.715037497746379813e-08,-7.536093145608901978e-02,-1.122876703739166260e-01,8.375088125467300415e-02,6.859874446263347636e-08,-8.341256761923432350e-04,8.218241855502128601e-03,-9.576573967933654785e-02,1.750233396887779236e-02,5.447393655776977539e-02,6.207855896001035489e-10,4.677126810292975279e-07,-8.377110213041305542e-02,4.583967372351338554e-10,-7.495742291212081909e-03,6.813306754338555038e-06,1.000350948743289337e-06,-1.228248009965682286e-07,5.851905484632879961e-07,1.841519400477409363e-02,2.858869549982046010e-07,6.792395765842229594e-07,1.562279090285301208e-02,4.423379898071289062e-02,1.541974143037805334e-06,-1.375658364999310379e-09,4.156869977123278659e-07,2.868669746192153980e-10,-5.282910540699958801e-02,-1.616385765373706818e-02,-3.372457250952720642e-02,-3.142021975932607347e-09,-8.613408356904983521e-02,3.103878771071322262e-05,-9.125549346208572388e-02,2.094701079258243226e-09,9.718786925077438354e-03,9.279770776629447937e-03,-1.387510817352222148e-08,-6.908742710947990417e-03,-4.516504704952239990e-02,-4.043485830607096432e-07,5.933514444222964812e-07,-1.801485940814018250e-02,-2.131951227784156799e-02,-6.688024103641510010e-02,1.001090495265088975e-04,-9.439443051815032959e-02,1.015910271462416858e-07,-3.422165884003902647e-09,-6.943321973085403442e-02,6.656953599303960800e-03,6.715429634596148389e-08,1.518212570772448089e-06,-3.277401626110076904e-02,-3.830441087484359741e-02,-2.741670641626114957e-07,1.341551914811134338e-02,7.880254315750789829e-08,6.357667734846472740e-04,-4.459520429372787476e-02,-1.441347421859973110e-06,-9.929607808589935303e-02,5.731264351993559103e-08,2.384605068073142320e-06,3.006809204816818237e-02,-3.446722112130373716e-04,9.565927321091294289e-04,-3.056461750361449958e-09,5.368140591599512845e-06,-4.418403841555118561e-03,4.548566043376922607e-02,4.021623730659484863e-02,-8.370113559067249298e-03,3.707662597298622131e-02,1.033659838140010834e-02,2.063466608524322510e-02,-5.984609574079513550e-02,-1.235546730458736420e-02,-4.074230790138244629e-02,-1.934085413813591003e-02,-5.310487374663352966e-02,5.048149731010198593e-03,8.494016714394092560e-03,4.799206741154193878e-03,-5.702337875845842063e-05,5.185971781611442566e-02,-7.612319290637969971e-02,5.105199292302131653e-03,-8.036068826913833618e-02,-1.906575874954796745e-07,2.221739094920849311e-07,-6.018062680959701538e-02,2.031089785248241242e-08,9.290723937738221139e-06,4.972990974783897400e-02,6.177048385143280029e-02
