7.887086272239685059e-02,4.468403384089469910e-02,1.248333887815533672e-06,1.484060703660361469e-05,1.141082495450973511e-02,1.694293678156100214e-05,3.592361099435947835e-05,5.705658346414566040e-02,7.767663151025772095e-02,-2.657616278156638145e-03,1.105667906813323498e-04,4.766186699271202087e-03,2.208333648741245270e-02,1.716376755211967975e-05,3.206891392437682953e-07,5.057267099618911743e-02,-1.634243130683898926e-02,2.666278646756836679e-07,-1.916883629746735096e-04,6.529063684865832329e-04,5.984698509564623237e-05,1.760702021420001984e-02,2.413066431472543627e-05,-9.436071850359439850e-04,-3.482963889837265015e-03,1.019014453049749136e-04,1.015402958728373051e-04,-5.360468290746212006e-03,3.507035784423351288e-03,1.035187244415283203e-01,-5.129902809858322144e-02,1.738936640322208405e-02
-1.600796349521260709e-05,-1.226519202646159101e-06,7.207424101984827303e-10,1.295161061731775476e-10,-1.653041636018315330e-06,3.623174427147546339e-09,9.961515168299683864e-09,-6.125530035205883905e-06,-4.291297955205664039e-06,8.242303010774776340e-05,1.741099731589201838e-05,-1.554718522811526782e-07,-7.104584256012458354e-06,1.193758203399397644e-09,2.599804052594301140e-11,-1.113474809244507924e-05,-1.090637852030340582e-05,1.598892199194956731e-11,2.452801739494248068e-09,-3.225558842245845881e-08,1.479166034101808691e-08,-1.789238808669324499e-06,1.879152167205688784e-09,4.701080413838099048e-09,-2.042651345846024924e-07,9.113970911300839362e-09,2.738984683503531414e-08,-1.419236923538846895e-06,-6.131455393187934533e-06,-1.346601857221685350e-05,-8.489793799526523799e-06,-3.440491809669765644e-06
-1.279103010892868042e-01,1.949517801403999329e-02,-1.260903718502959237e-05,1.044726886902935803e-04,-4.889877047389745712e-03,-3.460824882495217025e-05,-6.496647256426513195e-05,2.454299852252006531e-02,7.390114665031433105e-02,-1.866275095380842686e-03,-7.283117884071543813e-05,2.185704652220010757e-03,1.456344313919544220e-02,-3.946587821701541543e-05,3.788130413795443019e-07,-9.541555307805538177e-03,4.075385630130767822e-03,-6.506648020376815111e-08,-7.883700891397893429e-05,5.065298755653202534e-04,-1.162930639111436903e-04,4.829074069857597351e-02,-5.773861994384787977e-05,-4.521868686424568295e-05,1.432205666787922382e-03,1.279055140912532806e-05,-2.516514214221388102e-04,-6.123589351773262024e-03,1.698792539536952972e-02,8.365991711616516113e-02,-5.811041221022605896e-02,3.940394148230552673e-02
-7.592765614390373230e-04,-1.348993450278612727e-08,-3.347798427366655005e-11,-1.699121621179244812e-09,1.724351506027232972e-07,6.311808101600036025e-05,-3.881802101979303643e-10,2.613756748814921593e-07,-6.598062896046030801e-08,2.459640668917018047e-08,-3.459038167008543496e-09,-3.671074111366579018e-08,2.355086792249494465e-07,1.434577318049079508e-10,-6.366375482347308434e-11,2.991618544001539703e-07,6.964304475332028233e-07,-8.693479963683969913e-11,2.014466649047363944e-10,-5.845675055127230735e-09,-1.033410956807756520e-08,-5.513008360935600649e-08,2.010058230972333604e-10,-1.829526391494695758e-10,2.506945229185930657e-08,-4.515529639093074366e-08,1.713694291538558900e-05,1.856215021689422429e-07,2.590663825685624033e-07,3.248151188017800450e-07,2.676949293345387559e-07,2.110942354249800701e-08
4.596363380551338196e-02,-9.820064587984234095e-05,-1.253143722124150372e-08,9.150388905254658312e-06,-1.153367265942506492e-04,-3.216445776388354716e-08,-1.109592133730075147e-07,3.463675081729888916e-02,-1.690723118372261524e-03,3.361693961778655648e-05,8.180863005691207945e-06,-3.131440098513849080e-05,-2.723237732425332069e-03,-4.801840347568031575e-08,-5.750690979766659439e-05,1.010256074368953705e-02,-8.626087009906768799e-02,-1.547068806395657248e-09,-5.679789438772786525e-08,-8.928083843784406781e-06,-3.047365737529617036e-07,-1.071780337952077389e-03,2.289645817654673010e-05,7.044578524073585868e-05,1.366302967653609812e-05,6.051075615687295794e-06,-2.719629605962836649e-07,7.363629061728715897e-03,-3.634553402662277222e-03,3.537768963724374771e-03,-3.119321539998054504e-02,-8.575411513447761536e-03
-3.112672420684248209e-04,-1.089836928258591797e-06,-4.622638716256233238e-09,7.671189905522624031e-09,1.468979348828725051e-06,-7.491515589208574966e-06,1.465628685082265292e-08,-2.604387409519404173e-04,-1.695596984063740820e-05,-4.227330464345868677e-06,9.291382525589142460e-07,6.606915121665224433e-07,-1.886945210571866482e-05,-1.362022761242087654e-08,-7.405550149996997789e-06,4.219348556944169104e-05,-7.028551044641062617e-05,-4.335386771803229067e-10,-2.302313895086172124e-08,1.417777895085237105e-07,-5.523351731540060428e-08,-8.915170838008634746e-06,2.454970271514866909e-08,1.415716255337429175e-08,4.166994040133431554e-05,-1.273508019039581995e-07,1.031690644026639347e-07,-8.276446692434547003e-07,-1.489351325290044770e-05,3.576840972527861595e-04,-8.861211244948208332e-05,-1.491427883593132719e-05
1.789521348882772145e-07,1.389856763012176089e-08,-1.127736966310965983e-11,-1.642845681715243700e-08,3.203610532409584266e-08,-3.819182123332431900e-11,-8.598605161225236770e-11,-4.500182330957613885e-05,4.858858204670468695e-08,5.575470307661589686e-09,-1.910569064067502154e-10,1.206336586179190817e-09,6.612561520569215645e-08,-1.888391179538650988e-11,-6.621385975321206208e-14,2.990475991282437462e-07,1.097302515518094879e-07,-7.235398803533132916e-14,-2.984364838587438840e-11,3.171884699337823577e-10,-1.426307405516524796e-10,1.562374052355153253e-08,-2.454463715606536311e-11,-5.638273528618675812e-11,1.067849808578102966e-09,-2.426022319923504256e-06,2.686596189960255288e-06,2.442030222482571844e-08,6.080288983412174275e-08,-1.197479505208320916e-04,1.070240687113255262e-04,3.284393912394989457e-08
-4.035940393805503845e-02,-5.897434800863265991e-02,-3.889057552441954613e-06,1.083038750948617235e-05,-5.076904781162738800e-04,-1.336995137535268441e-05,-1.376199179503601044e-05,-5.419852212071418762e-02,-5.413994193077087402e-02,2.817176515236496925e-03,-1.072700106306001544e-04,-5.909024272114038467e-03,-6.011759862303733826e-02,-1.727773997117765248e-05,-5.196695838094456121e-07,1.000580862164497375e-01,6.406890228390693665e-03,-1.460560952182277106e-07,-1.691102443146519363e-05,-6.877848063595592976e-04,2.571657067164778709e-03,-6.144320964813232422e-02,-2.975485767819918692e-05,-2.422328543616458774e-05,3.920249175280332565e-03,-2.163188182748854160e-04,-5.139125278219580650e-05,5.394984968006610870e-03,-3.821982815861701965e-02,3.558631241321563721e-02,1.120765656232833862e-01,6.412572413682937622e-02
-5.830867215991020203e-02,6.181566044688224792e-02,7.517830454162321985e-06,-1.320062438026070595e-04,2.249357476830482483e-02,-1.323916785622714087e-05,6.714364280924201012e-05,1.176695246249437332e-02,-7.621261477470397949e-02,1.582520781084895134e-03,8.992817311082035303e-05,1.475277449935674667e-02,4.970024153590202332e-02,2.275105725857429206e-05,8.728540592528588604e-07,1.092495024204254150e-01,8.371075987815856934e-02,6.250148203434946481e-07,3.334928260301239789e-05,1.800352940335869789e-03,7.362548058154061437e-05,-3.075898624956607819e-02,3.506991924950852990e-05,1.891799001896288246e-05,-7.004242390394210815e-03,3.148697142023593187e-04,1.125616563513176516e-05,5.161220207810401917e-02,3.384463489055633545e-02,1.452949196100234985e-01,1.563557386398315430e-01,-2.606767788529396057e-02
6.979117870287154801e-07,7.445439820230603800e-08,-2.372321956933820530e-11,1.102203397995715761e-11,8.401329409934987780e-08,-7.921212991091053368e-11,-1.885879646890131767e-10,1.999634662297467003e-07,9.754384677762573119e-08,-2.434574707876890898e-05,-4.430619482409525745e-10,5.319314766438765218e-09,1.984670348065264989e-07,-3.863812395032972802e-11,5.651806532114278525e-06,4.129874184854998020e-07,4.932315391670272220e-07,-4.102888005470123334e-14,-1.053998346933759933e-10,9.815666057733096750e-10,6.996867887210100889e-05,6.419558218340171152e-08,-7.406074364890713468e-11,1.470767165301367640e-04,3.215882282692206218e-10,7.159113124544091988e-07,2.922996600318583660e-07,4.052495583550808078e-08,3.411458351365581620e-07,-2.073987270705401897e-04,3.646721324912505224e-07,8.922913963260725723e-08
9.815734624862670898e-02,2.790468931198120117e-02,4.853086466027889401e-06,-8.337075269082561135e-05,2.686663530766963959e-02,6.469835170719306916e-06,4.932613592245616019e-05,-3.472669050097465515e-02,-7.150524109601974487e-02,3.202189924195408821e-03,3.935913264285773039e-05,9.925712831318378448e-03,5.996159091591835022e-02,1.173735654447227716e-05,8.978535106507479213e-07,9.005782008171081543e-02,9.970462322235107422e-02,3.428112336223421153e-07,1.940286165336146951e-05,1.533375936560332775e-03,2.386856067460030317e-05,-9.446838521398603916e-04,2.170736297557596117e-05,3.982754424214363098e-05,-4.473697859793901443e-03,2.254900464322417974e-04,1.134867852670140564e-04,1.450389623641967773e-02,2.391758747398853302e-02,7.779150269925594330e-03,-1.074469089508056641e-01,-1.882095821201801300e-02
1.311001181602478027e-01,1.007991470396518707e-02,3.367498038642224856e-06,-9.054731344804167747e-05,5.102406069636344910e-02,2.774290805973578244e-05,4.428980901138857007e-05,1.043377816677093506e-01,2.641243115067481995e-02,7.241478655487298965e-03,4.678345430875197053e-05,1.826753653585910797e-02,3.922821953892707825e-02,5.662237981596263126e-06,9.840177881415002048e-07,-8.595030009746551514e-02,1.333054155111312866e-01,1.093298578780377284e-06,2.006187060032971203e-05,2.058779820799827576e-03,1.487956906203180552e-04,-7.818818092346191406e-02,1.104353395930957049e-05,1.842377605498768389e-05,-3.762419335544109344e-03,4.679821431636810303e-04,8.585992327425628901e-05,3.853410482406616211e-02,-3.684001788496971130e-02,8.979170024394989014e-02,-1.234071254730224609e-01,7.078619301319122314e-02
1.109840273857116699e-01,2.135681360960006714e-02,3.369538262631976977e-06,-1.557855102873872966e-05,-2.470897277817130089e-03,1.137380604632198811e-05,3.129890683339908719e-05,7.737555354833602905e-02,-3.601647913455963135e-02,-5.548361805267632008e-04,2.778714588203001767e-05,1.059580408036708832e-02,3.003095649182796478e-02,1.075238196790451184e-05,6.369200491462834179e-07,2.040639147162437439e-02,-9.868031740188598633e-02,-1.137070648837834597e-05,1.450725449103629217e-05,1.196417259052395821e-03,4.355790952104143798e-05,4.317641258239746094e-03,-2.712389868975151330e-05,-5.145429749973118305e-04,-1.027073478326201439e-03,2.614188124425709248e-04,1.009286206681281328e-04,-1.527606882154941559e-02,8.946541696786880493e-03,6.065867468714714050e-02,-1.133149191737174988e-01,-3.541010990738868713e-02
-2.606870792806148529e-02,5.857899668626487255e-04,4.349656137492274866e-06,-1.997805084101855755e-04,2.350031211972236633e-02,-1.353052794001996517e-04,9.173008584184572101e-05,1.579433083534240723e-01,3.656592965126037598e-02,3.258771495893597603e-03,-6.410560308722779155e-05,-1.693626493215560913e-02,2.832715958356857300e-02,2.348850102862343192e-06,-1.711294771666871384e-06,2.755742520093917847e-02,2.545500174164772034e-02,1.513026563770836219e-05,7.765277132421033457e-07,-1.036664703860878944e-03,-3.364619988133199513e-05,4.902215674519538879e-02,2.205840928581892513e-06,2.601336564111988991e-05,-2.362714847549796104e-03,-3.422291774768382311e-04,7.765201007714495063e-05,2.098125033080577850e-02,3.067601285874843597e-02,1.391869485378265381e-01,-2.298177592456340790e-02,1.378236263990402222e-01
6.928357443314325792e-09,6.179973754960599308e-10,-5.157225015962885184e-13,4.849622655456187204e-06,-3.756763078399671940e-07,-1.831554222522790987e-12,-5.222570206159238282e-12,-3.670931846500025131e-06,5.910270495235181443e-09,4.442306245078242455e-10,-1.176997041496541385e-11,1.160641461411815456e-12,3.100772083541869506e-09,-1.139474365557946456e-12,1.229299424569934435e-14,4.202926717766786169e-08,-1.373372583657328505e-06,1.243857125724509918e-14,-2.818270727900085149e-09,-9.530500477694658912e-08,-1.247119595093604261e-11,9.685960922212188962e-10,-2.979121073096169248e-12,-5.865731509402394295e-04,7.542355628942232215e-11,-6.206863148450203482e-12,-1.111607160486638435e-11,1.900746893213067779e-09,8.367255333041612175e-09,9.096797093377517740e-09,6.968433829968034843e-09,-1.133404055053688353e-07
9.151354432106018066e-02,8.504528552293777466e-03,6.268192578318121377e-07,-4.768715371028520167e-06,4.863280337303876877e-03,3.118918129985104315e-06,2.812659113260451704e-05,8.828461915254592896e-02,5.519852414727210999e-02,1.863137353211641312e-03,-1.764779153745621443e-05,1.089189480990171432e-02,2.335648424923419952e-02,3.971892510890029371e-06,-7.321476118704595137e-07,9.481205791234970093e-02,3.017632849514484406e-02,-7.239602382469456643e-06,1.169394545286195353e-05,1.273328787647187710e-03,5.068093287263764068e-06,-1.016394607722759247e-02,7.421569989674026147e-06,1.019420869852183387e-05,-1.742990803904831409e-03,2.870571624953299761e-04,2.418604162812698632e-05,4.633628297597169876e-03,2.189010754227638245e-02,-8.517538011074066162e-02,-4.273710027337074280e-02,4.664201289415359497e-03
-1.281180828809738159e-01,1.402866560965776443e-02,3.213304125893046148e-06,-1.100224617403000593e-04,2.337230183184146881e-02,8.087085916486103088e-06,3.816978278337046504e-05,4.654759913682937622e-02,1.693075709044933319e-02,4.110212903469800949e-03,9.046604645845945925e-06,9.066792204976081848e-03,7.632664591073989868e-02,6.168878371681785211e-06,3.659964420421601972e-07,6.141353026032447815e-02,5.821978300809860229e-02,3.937996098102303222e-07,1.810574758565053344e-05,1.334792701527476311e-03,1.841136872826609761e-05,3.732747957110404968e-02,7.518790880567394197e-06,1.786339635145850480e-05,-3.007549559697508812e-03,2.543102309573441744e-04,7.751096563879400492e-05,3.309030830860137939e-02,5.895423889160156250e-02,4.920636769384145737e-03,1.272239238023757935e-01,2.169009298086166382e-02
-2.214788423771096859e-07,-6.436994226532988250e-08,5.940710423590900291e-11,-9.549364771155310905e-11,-1.138920566745582619e-07,1.537730359713052053e-10,4.931253183571016052e-10,-2.324143650866972166e-07,-1.861195642050006427e-07,-3.956283300965424132e-09,9.133888090318009745e-10,4.757648941478009874e-09,-1.468739725396517315e-07,6.443501981978627668e-11,5.947376922540992261e-13,-2.345939975612054695e-07,-1.828767892675386975e-07,8.368963616729729882e-13,8.089561659430088980e-11,9.072985140967659845e-10,6.789308559795870224e-10,-9.745162543595142779e-08,9.620478719218894526e-11,2.983656932631362224e-10,-3.691649208548142269e-09,-5.322916551975254151e-10,1.288495199425199189e-09,-6.632239291093355860e-08,-1.628935848430046462e-07,-4.372551813958125422e-07,-1.969664680245841737e-07,-1.869927075404120842e-07
1.169597879052162170e-01,2.799713797867298126e-02,4.561723926599370316e-06,-3.254513285355642438e-05,1.881783828139305115e-02,4.805808202945627272e-06,3.705741255544126034e-05,-2.592340670526027679e-02,1.303319819271564484e-02,-1.102713868021965027e-04,7.992727478267624974e-05,3.014734480530023575e-03,2.385583333671092987e-02,1.121138666348997504e-05,2.850356111139262794e-07,-4.673546180129051208e-02,-4.079531878232955933e-02,-1.295527210459113121e-03,1.465933928557205945e-05,6.387790781445801258e-04,1.840920049289707094e-05,-2.052203752100467682e-02,-1.816343283280730247e-04,2.078115721815265715e-05,-2.851582365110516548e-03,9.507263894192874432e-05,9.263143147109076381e-05,-5.752725526690483093e-03,2.637427672743797302e-02,7.419113069772720337e-02,8.415445685386657715e-02,-2.134710177779197693e-02
-3.722072765231132507e-02,5.489010363817214966e-04,-2.073307314276462421e-06,2.857049184967763722e-05,-8.126646280288696289e-04,-4.249478479323443025e-06,-1.703896850813180208e-05,1.713083498179912567e-02,3.694785526022315025e-03,-1.442207576474174857e-04,-2.313175718882121146e-05,-3.084374839090742171e-05,1.340136397629976273e-03,-5.444869202619884163e-06,3.562070196494460106e-04,-6.785913370549678802e-03,-2.644035033881664276e-02,-2.323754344502049207e-08,-4.315057594794780016e-06,-2.864214138753595762e-06,5.777194746769964695e-04,1.551181543618440628e-03,-1.999464757318492047e-06,-6.787534402974415570e-06,1.103827307815663517e-04,6.555760137416655198e-06,-3.786199886235408485e-05,-2.948088804259896278e-04,-9.771226177690550685e-05,1.311109960079193115e-02,3.886591270565986633e-02,5.541178397834300995e-03
-2.488511847332119942e-03,9.886490879580378532e-04,-2.058687300632300321e-07,1.332956856003875146e-07,-7.968990248627960682e-04,9.447650199945201166e-07,-1.939946287166094407e-06,-1.353508606553077698e-02,1.369689684361219406e-02,-1.391669065924361348e-04,-2.264913064209395088e-06,3.811949864029884338e-04,-2.550134202465415001e-03,7.430393793583789375e-07,2.986083913469883555e-08,1.308394223451614380e-02,-7.924675010144710541e-03,2.686942579543938336e-08,7.511337685173202772e-07,6.872159428894519806e-05,6.301620032900245860e-06,9.680420043878257275e-04,9.919017429638188332e-07,-9.551122275297529995e-07,-2.975726602016948164e-05,1.125731068896129727e-05,-4.871787496085744351e-06,-1.168673508800566196e-03,-2.582828979939222336e-03,2.094247750937938690e-02,-4.065332934260368347e-02,-3.311814973130822182e-03
-1.760455407202243805e-02,-4.563053138554096222e-03,1.822144440666306764e-06,-8.174636604962870479e-05,1.818410307168960571e-02,1.543448888696730137e-06,2.450641477480530739e-05,6.440514326095581055e-02,-2.158412244170904160e-03,4.532624501734972000e-03,-2.576752740424126387e-05,3.471092088147997856e-03,4.054446145892143250e-02,4.611627275608043419e-07,1.388823729939758778e-04,7.319474965333938599e-02,-3.051164187490940094e-02,3.809152531175641343e-07,9.446211151953320950e-06,7.899485062807798386e-04,-1.594738932908512652e-05,-1.384199969470500946e-02,-1.910119635795126669e-06,9.724994015414267778e-05,-1.766396337188780308e-03,1.350413076579570770e-04,4.335211269790306687e-05,-1.353536732494831085e-02,7.374671846628189087e-02,2.000934816896915436e-02,1.129114478826522827e-01,6.438416987657546997e-02
-3.968904493376612663e-04,9.249751187212496006e-09,-3.794834238513011826e-11,1.896665290102017565e-11,2.260018305833000340e-08,-1.246847677975893021e-04,-6.022695675511613445e-10,2.500711389075149782e-07,2.765468991583475145e-07,1.990540567931020632e-07,-2.429464075248688459e-06,-3.888478161684361112e-08,1.807820524390990613e-07,-7.720028782909338361e-11,-3.457861167538434088e-12,5.660058377543464303e-07,4.409212976952403551e-07,-2.404138086525842155e-12,-1.728552995183818553e-10,-5.026643101757599652e-09,-1.160383108071982861e-03,-1.966835043276660144e-05,2.126354231579696830e-10,-2.049475172904990927e-10,1.189946363666649631e-08,-1.152970163786903868e-09,-4.884076406597159803e-05,1.273065493023750605e-07,1.541273064731285558e-07,8.115754326354363002e-07,3.622126882873999421e-07,1.511237144313781755e-07
-3.476609344943426549e-05,4.965920652466593310e-08,3.561201680768455446e-12,1.520817392020035186e-07,2.247708152935956605e-08,3.887911260297416405e-12,6.836938567372774500e-12,-1.112275960224451410e-08,3.036975471104597091e-08,4.033752443177718305e-09,9.150804419766345177e-11,1.487492440332971455e-08,1.625992638309980975e-07,6.456023216028228262e-12,-1.669465516621494033e-14,-1.502342684034374543e-06,-4.954242285748478025e-06,-5.449175046736906558e-14,6.689636691814548897e-12,2.477957394830809790e-09,1.356135620467213698e-10,1.454970455228021819e-08,3.301072956651829315e-11,-1.283026289378152995e-11,-6.863330348494400823e-09,2.976666690912566082e-10,3.668050752025919792e-09,-7.321980799446237143e-09,1.311951365323693608e-07,-1.341829192824661732e-05,-1.837285481087747030e-06,1.312968511690826290e-09
2.559795975685119629e-02,-1.869302429258823395e-02,-3.066435056098271161e-06,5.578191121458075941e-06,-1.019594445824623108e-02,-4.221012204652652144e-06,-1.149860054283635691e-05,7.947339117527008057e-02,-2.813046053051948547e-02,1.413976657204329967e-03,-8.155072282534092665e-05,2.801580820232629776e-03,-1.626016199588775635e-02,-6.116121767263393849e-06,-1.789435799537386629e-07,-1.244474798440933228e-01,2.067150175571441650e-02,-1.566865392987892847e-07,-5.017599505663383752e-06,3.598766343202441931e-04,-5.928290920564904809e-05,-1.110167987644672394e-02,-9.497285645920783281e-06,-9.243840395356528461e-06,1.228611217811703682e-03,-4.575978164211846888e-05,-5.775954559794627130e-05,1.270217448472976685e-02,6.522947456687688828e-03,6.736835092306137085e-02,5.369634926319122314e-02,6.550932768732309341e-03
2.553493771983994520e-08,2.319339387213403825e-09,-2.591900652437750807e-12,2.472055763216851609e-12,5.797220481440490403e-09,-5.329190214120593794e-12,-1.575883000481947960e-11,1.059877519082874642e-08,4.780069957632804289e-07,3.146593874348013742e-09,-6.917852402033020098e-11,-7.662225715021619976e-11,1.208314781564467921e-08,-4.217521731159079579e-12,3.021446445927722380e-06,-1.029925715556601062e-05,1.984350461725625792e-08,-5.789359063760463053e-14,-7.979933554225215886e-12,-6.345551861741682842e-11,-4.211151566346771347e-11,2.497950735147469459e-09,-6.152359437877619186e-12,-3.508330337353982031e-08,2.545158250821799584e-10,-1.631639094668013712e-11,-6.190420398510809719e-11,3.838465545413782820e-09,1.169263708078460695e-08,2.338302174109685438e-08,1.530433202390213410e-08,5.818043380401149989e-09
-5.751101261886049087e-10,-2.151576694586765370e-10,1.334358106864011462e-13,-2.854992446881671198e-13,-3.598820685901671368e-10,5.615128045692585612e-13,1.248368595996307562e-12,-7.422853998129141928e-10,-5.216697629428779237e-10,3.924420684253693281e-12,2.932897631355291246e-12,-3.872474216293220195e-11,-6.909607330740641373e-10,2.107508910225916465e-13,1.364613382586106222e-15,-1.164943252973671406e-09,-1.173172670121402916e-09,2.252026190381031974e-15,3.888485399557856104e-13,-5.689570776318264578e-12,3.234990400557968826e-12,-2.886401673229954667e-10,3.149764791435943900e-13,7.539399334878515990e-13,9.466030390092861069e-12,2.032711970750486485e-13,3.439317840941980009e-12,-2.107247154548019807e-10,-6.563651289148708656e-10,-1.720078968148186505e-09,-5.976394934492645916e-10,-5.419153459307324283e-10
-1.082514971494674683e-01,1.356129534542560577e-02,-4.707072093879105523e-06,5.696056905435398221e-05,2.055319026112556458e-03,-1.949256329680792987e-05,-3.896901762345805764e-05,3.343020379543304443e-02,-6.451870314776897430e-03,-1.707177958451211452e-03,-5.286583473207429051e-05,-9.492977405898272991e-04,1.516649872064590454e-02,-7.946549885673448443e-06,-1.490104608592446311e-07,7.614166289567947388e-02,2.377465739846229553e-02,-5.389227339946955908e-07,-1.819843964767642319e-05,-1.663713010202627629e-05,-8.898352098185569048e-05,1.894218660891056061e-02,-3.980876954301493242e-06,-2.139456228178460151e-05,4.055803292430937290e-04,-6.458308780565857887e-05,-9.541127656120806932e-05,2.622042549774050713e-03,2.215168206021189690e-03,-1.978642493486404419e-02,6.526451557874679565e-03,7.802174892276525497e-03
-1.908458216348662972e-04,-9.989547606892301701e-07,-1.649728131880578985e-10,7.281928837699069845e-09,-5.626226879940077197e-07,-7.327999540507335041e-09,-5.990221652041327616e-10,-3.034902817944384879e-07,-3.054609010177955497e-07,-2.672138244008692709e-08,-8.054123412648550584e-08,-3.845272260605270276e-07,-1.906350917124655098e-06,2.495353090825602749e-10,-8.590430450317043665e-11,-2.127814695995766670e-06,-6.119598765508271754e-07,-1.399413085412248847e-10,-2.886958405667883198e-08,-6.253536355416144943e-08,-2.632139306513181509e-08,3.040400042664259672e-05,-8.426946362938281254e-10,-2.674680754655156534e-10,-1.528016895235850825e-07,1.417414205207023770e-05,-1.853659004069641014e-09,5.012096266909793485e-07,-1.142036808232660405e-06,-3.414338380025583319e-06,-4.153425550157407997e-07,1.420234241322759772e-07
8.550973262799743679e-08,6.651533990265079410e-09,-6.699342035981770138e-12,1.078431094425624792e-11,1.615875433458313637e-08,-2.332935754301157516e-11,-6.954740255915581315e-11,8.703311493718501879e-08,2.169418245046017546e-08,1.947215605468954891e-05,-1.028829799132324752e-10,2.095478235375480836e-09,3.565453710052679526e-08,-1.134063155883158203e-11,6.395174103820955303e-13,7.161081612139241770e-07,6.845845490488500218e-08,-1.960148487750376645e-13,-2.090505893392879955e-11,2.074243728167335377e-11,-8.511503307717660505e-11,3.405769530218094587e-05,-1.511262989750683516e-11,-7.747263247592783841e-11,1.086338463629488160e-09,-7.892698300482337004e-11,-1.296987378607283858e-10,1.048383335700009411e-08,3.302264772742091736e-08,-3.703560651047155261e-05,4.776133621930966910e-08,1.966497720218285394e-08
9.159757941961288452e-02,-4.462950397282838821e-03,4.799904331775906030e-07,-9.704869444249197841e-05,-9.974986314773559570e-03,-6.849329110991675407e-06,-1.645392185309901834e-04,-2.375104092061519623e-02,3.576394170522689819e-02,-1.214971882291138172e-03,-9.626939572626724839e-05,-2.214267849922180176e-03,-3.036442957818508148e-02,6.040632456461025868e-07,-1.245764025270545972e-07,6.043068692088127136e-02,9.551363473292440176e-05,-1.117600092470638629e-07,6.948748705326579511e-07,-3.590206615626811981e-04,8.089345101325307041e-06,-1.084112748503684998e-02,1.966218633242533542e-06,2.542505171732045710e-06,4.242387367412447929e-04,-5.006124047213234007e-05,1.070197504304815084e-05,-3.298875177279114723e-03,1.363680814392864704e-03,4.034944251179695129e-02,-1.020248085260391235e-01,-3.233448136597871780e-03
-3.739231942745391279e-06,1.424730333710044761e-10,-4.469563011800375962e-13,-1.427772830520090963e-11,1.812043737281499034e-09,2.238063279946800321e-05,2.605469876307275889e-12,2.065510651405588760e-09,-1.704238306032834771e-09,3.331047992105595767e-06,-7.656611455963968638e-11,3.452809664850065019e-07,1.605209853927647146e-09,1.278208767128974355e-12,-2.090376347496300524e-13,8.785751015594200908e-10,1.055828402485303741e-08,-8.324944466425732159e-13,1.653431623387102700e-12,-3.741984500038597616e-11,-4.949483531357934396e-12,4.921321874462591950e-07,1.240773217676960360e-12,-7.585145483718011561e-14,2.149419670027796769e-10,-4.607493275798901777e-10,-1.168804115991850523e-11,1.590600096079697323e-09,2.224526562955020381e-09,-8.808459517339883860e-10,-1.681042327561499405e-08,-5.344834574927403992e-10
4.992558434605598450e-02,2.351953275501728058e-02,4.105231710127554834e-06,-9.495711856288835406e-05,5.874046683311462402e-02,9.142580529442057014e-05,1.461471692891791463e-04,5.176552012562751770e-02,-7.742228358983993530e-02,4.348443821072578430e-03,2.934676376753486693e-05,1.281508803367614746e-02,5.175076797604560852e-02,9.144933756033424288e-06,6.583767344636726193e-07,-2.121787331998348236e-02,5.502200499176979065e-02,6.734247222084377427e-07,2.281043634866364300e-05,1.680787769146263599e-03,5.087109093437902629e-05,5.078354850411415100e-02,1.327227801084518433e-05,2.169332037738058716e-05,-3.289291169494390488e-03,3.548368404153734446e-04,2.369892172282561660e-04,1.437123864889144897e-02,1.199463531374931335e-01,9.600152820348739624e-02,3.859044983983039856e-03,7.380291074514389038e-02
1.718298345804214478e-01,7.993576675653457642e-02,1.011932090477785096e-05,-2.435072965454310179e-04,4.688886553049087524e-02,-1.975837449208484031e-06,9.204365778714418411e-05,-3.347840905189514160e-02,5.773096159100532532e-02,-7.335070054978132248e-03,9.040707664098590612e-05,1.881161518394947052e-02,9.308436512947082520e-02,3.238596764276735485e-05,1.329355399093401502e-07,2.529151737689971924e-02,8.356765657663345337e-02,6.049489797987916972e-07,4.526002157945185900e-05,2.189021790400147438e-03,-2.298961589985992759e-05,1.768843829631805420e-02,5.233232514001429081e-05,5.171837256057187915e-05,-7.782120257616043091e-03,6.453966489061713219e-04,1.758874568622559309e-04,3.607073798775672913e-02,9.499625861644744873e-02,-1.305340440012514591e-03,-7.132697850465774536e-02,4.876890406012535095e-02
1.085479930043220520e-01,6.567751616239547729e-02,6.715777544741285965e-06,1.531417910882737488e-05,1.074564270675182343e-02,2.636836143210530281e-05,3.912040119757875800e-05,3.252322226762771606e-02,6.095752120018005371e-02,-2.696170238777995110e-03,1.106229246943257749e-04,1.918346062302589417e-02,4.838240519165992737e-02,2.125095306837465614e-05,-1.187204979942180216e-04,9.080632776021957397e-02,-1.140245608985424042e-02,8.592187441536225379e-07,2.838639738911297172e-05,1.867038896307349205e-03,3.384936426300555468e-04,3.533616289496421814e-02,3.433622259763069451e-05,2.455174580973107368e-05,-4.024622496217489243e-03,4.092013114131987095e-04,-1.178289414383471012e-03,-1.775970309972763062e-02,-1.278755720704793930e-02,2.951262705028057098e-02,-1.525496393442153931e-01,3.112906590104103088e-02
1.785968350986877340e-08,1.832809459756390424e-09,-1.791222010126547470e-12,2.368534838745328663e-12,3.926277081234275101e-09,-3.937679609461453012e-12,-1.163961288463966071e-11,-1.902445774248917587e-07,4.669483910646476943e-09,-8.568313205614686012e-05,2.049466019116152893e-08,8.188874925374456382e-12,8.872062196019214753e-09,-2.934000048124274507e-12,-4.578869993565604091e-05,1.666815485634742799e-08,-2.523756847949698567e-06,-9.733318616150440916e-14,-5.517101098889698463e-12,1.478956540568177047e-11,-2.001464745262637734e-04,1.237832236711255973e-08,-1.530192097164151388e-12,-7.948986521094658642e-13,1.159094082936462655e-07,-4.743487894143250116e-11,-3.398015905986540020e-05,2.531745035838639524e-09,8.147440055950028182e-09,1.960213040774760884e-07,1.664361981568163174e-08,-1.672253347351215780e-05
7.039690017700195312e-02,1.786581613123416901e-02,2.983579179272055626e-06,-7.845132131478749216e-06,6.367418449372053146e-03,9.524099368718452752e-06,2.490062070137355477e-05,-3.578696399927139282e-02,-1.060296548530459404e-03,-8.492777706123888493e-04,5.194225741433911026e-05,3.032402135431766510e-03,4.845805815421044827e-04,2.148874955310020596e-05,-6.373351624233691837e-08,-2.525658905506134033e-02,2.028225362300872803e-02,-7.109727562237821985e-08,3.408944758120924234e-05,3.593997680582106113e-04,3.649178324849344790e-05,-2.461244352161884308e-03,3.115985964541323483e-05,-1.341674760624300689e-05,-1.618188456632196903e-03,-1.062621322489576414e-05,4.924379754811525345e-05,-1.322745927609503269e-03,5.882048513740301132e-03,-5.898579582571983337e-02,1.463777571916580200e-02,-7.045685779303312302e-03
2.791696973145008087e-02,3.270918130874633789e-02,4.654923031921498477e-06,-3.138055399176664650e-05,7.382877171039581299e-03,7.443820322805549949e-06,2.794109423120971769e-05,7.104183733463287354e-02,3.325344249606132507e-02,-2.024058630922809243e-04,1.028088081511668861e-04,4.196029622107744217e-03,4.058287665247917175e-02,1.212065672007156536e-05,4.538342466275935294e-07,7.753928005695343018e-02,5.434140563011169434e-03,3.043660399271175265e-07,1.383559356327168643e-05,7.790189702063798904e-04,2.411861532891634852e-05,-9.599774144589900970e-03,2.552060323068872094e-05,2.119963755831122398e-05,-3.218553727492690086e-03,6.378177786245942116e-04,-7.256173412315547466e-04,-1.812476664781570435e-02,6.879999488592147827e-02,-4.588523879647254944e-02,-2.445675432682037354e-03,2.939342893660068512e-02
1.198652833700180054e-01,-5.779446661472320557e-02,-2.368679588471422903e-06,-4.245486343279480934e-05,-1.204773690551519394e-02,-9.793181561690289527e-06,-1.370072914141928777e-05,-8.888297528028488159e-02,5.888949334621429443e-02,2.932643285021185875e-03,-9.918632713379338384e-05,-1.241720933467149734e-02,-2.690816111862659454e-02,-1.451573007216211408e-05,-1.094163053494412452e-06,4.875739291310310364e-02,6.795652955770492554e-02,-4.115263720905204536e-07,-1.533874456072226167e-05,-1.132365316152572632e-03,-1.286738261114805937e-04,7.025950122624635696e-03,-3.068777732551097870e-05,-1.366190917906351388e-05,2.767020603641867638e-03,-1.968192809727042913e-04,8.127716137096285820e-05,2.175943180918693542e-02,1.991369202733039856e-02,9.664434194564819336e-02,-9.678462892770767212e-02,6.809155642986297607e-02
1.177503913640975952e-02,5.253911018371582031e-02,6.055508947611087933e-06,-3.589156767702661455e-05,1.929492689669132233e-02,1.247143609361955896e-05,4.892091237707063556e-05,-4.134198650717735291e-02,7.121215574443340302e-03,7.653639477211982012e-05,1.158209779532626271e-04,1.281111221760511398e-02,4.399758949875831604e-02,1.826889092626515776e-05,5.094635343994013965e-05,6.360136717557907104e-02,-9.375778585672378540e-02,6.064840363251278177e-07,2.424050398985855281e-05,1.665084972046315670e-03,9.308710286859422922e-05,8.159413933753967285e-03,3.634749373304657638e-05,3.172014112351462245e-05,-5.213416181504726410e-03,2.934154181275516748e-04,1.314329128945246339e-04,-4.521934781223535538e-03,5.458033084869384766e-02,1.258627921342849731e-01,-9.388005733489990234e-02,-5.320535600185394287e-02
-7.784672081470489502e-02,2.508525969460606575e-03,-2.948532483060262166e-06,6.616776954615488648e-05,4.546208307147026062e-03,-1.152180630015209317e-05,-2.380878322583157569e-05,9.977634251117706299e-02,-6.389918178319931030e-02,-8.376446203328669071e-04,-5.980109563097357750e-05,-9.063549077836796641e-05,-1.003843266516923904e-03,-1.843975041992962360e-06,-2.053526486633927561e-07,6.884662900120019913e-03,-8.499168604612350464e-02,3.419875156396301463e-06,2.148248540834174491e-06,-1.635844273550901562e-05,-7.034557347651571035e-05,3.946816548705101013e-03,-7.189081952674314380e-05,-1.552766843815334141e-05,-5.309096304699778557e-04,-1.215095016959821805e-05,-7.087197445798665285e-05,-1.572574675083160400e-02,-4.146660491824150085e-02,5.881545320153236389e-02,7.891802489757537842e-02,-9.106286452151834965e-04
-3.912444146436655501e-09,-1.626081491679087776e-10,8.619595651387229607e-14,-5.601887972050099973e-14,-2.970271251179212868e-10,3.616695430554844881e-13,7.844699282527622941e-13,-1.646358605000841635e-09,-8.550981034360916055e-10,-3.426720365795610235e-11,1.821925856709816216e-12,-1.977582334000693720e-11,-1.173598551673649126e-09,1.157281193618631132e-13,2.968573288594333719e-15,-3.128012959763282197e-09,-2.842471813480074161e-09,2.175116869319762385e-15,2.435864281547656107e-13,-2.668631645958569054e-13,1.693505361985425672e-12,-2.655610731316926376e-10,1.736834417606636372e-13,5.467833759549567407e-13,-8.148958070830492062e-12,1.119387026647655770e-12,6.308360517986999483e-12,-2.256676095990783892e-10,-9.627886266017071648e-10,-4.281468957145762033e-09,-2.978508328865814292e-09,-6.425474596838398611e-10
-2.117720578098669648e-05,-8.829718067815406357e-10,-1.351456056439270803e-12,-5.653949877726383022e-11,6.330872714954693947e-09,-1.194586929376129092e-10,-1.252608802272681121e-12,8.346679791770839074e-09,-2.220154948773256365e-09,6.427065546432686460e-10,-1.020863393819126941e-10,5.758666876687357217e-09,9.397803424349149282e-09,5.391602529020156354e-12,-2.914598250247646405e-12,3.141528637229384913e-08,3.999782904884341406e-08,-3.221025009214617540e-12,8.075790904060742292e-12,-2.279685468176140262e-10,-1.264493371122554777e-10,-2.542094756918800158e-09,7.938412947827711008e-12,-6.964490182476135161e-12,-3.125053808616939932e-06,-1.975211549876121353e-09,-4.255925820095818324e-11,6.652077999547145737e-09,9.535363609813884977e-09,7.140072710853928584e-08,2.129725729105302889e-08,-3.748677757098306529e-11
1.349493861198425293e-01,1.356202363967895508e-01,1.545240775158163160e-05,-1.366623037029057741e-04,1.945165097713470459e-01,2.993554699060041457e-05,1.371601247228682041e-04,-1.013569161295890808e-02,1.204346120357513428e-01,-1.510109007358551025e-02,1.776119752321392298e-04,5.569091439247131348e-02,2.061981707811355591e-01,6.114443385740742087e-05,2.193361297031515278e-06,8.086624741554260254e-02,1.106673106551170349e-01,1.828200424824899528e-06,8.618856372777372599e-05,5.855259019881486893e-03,1.030965795507654548e-04,-1.857615821063518524e-02,9.068760118680074811e-05,7.626559090567752719e-05,-1.173172798007726669e-02,-2.207826124504208565e-03,2.862592227756977081e-04,1.463991850614547729e-01,1.174923852086067200e-01,6.833186000585556030e-02,3.128005191683769226e-02,1.238388419151306152e-01
-7.517675371104814985e-11,2.435093446329084088e-11,-4.238517970303092020e-14,5.999819815505434001e-15,6.276403008431685748e-11,-1.228775111175584023e-13,-3.056544275494010865e-13,1.451246501443792525e-11,2.910518701049191748e-11,5.290749609254685737e-12,-6.072854892569257146e-13,-6.622599170447163175e-12,5.087278862059285700e-11,-7.126941316834903284e-14,-5.181640939720232996e-16,-6.504220773084767870e-11,-1.208821671233595296e-12,-2.513186723870707668e-16,-1.253619197382274675e-13,-6.928223728226712286e-13,-4.820326538097774449e-13,2.707874549590094659e-11,-1.029515489243786053e-13,-1.962649471111757582e-13,9.325861480627417599e-13,4.727989850214324441e-14,-7.693983796429326727e-13,3.770372208888872478e-11,5.836145455795360704e-11,-1.664593879402431753e-10,-1.345461849572293644e-11,3.979675963772244529e-11
3.113913163542747498e-02,-3.207448404282331467e-03,-1.398597078150487505e-06,1.676479732850566506e-04,-7.914553862065076828e-04,-3.878205916407750919e-06,-1.138051356974756345e-05,8.224308257922530174e-04,-5.901648182771168649e-05,2.879331004805862904e-04,-2.808063072734512389e-05,-1.703615998849272728e-05,-7.685171905905008316e-03,-3.323551936773583293e-06,3.117769665550440550e-05,1.030690595507621765e-02,-9.398356778547167778e-04,-2.860930337078571029e-08,-5.040308224124601111e-06,8.353393241122830659e-06,-9.951443644240498543e-06,-2.303257817402482033e-03,-9.733157639857381582e-07,4.136099596507847309e-04,1.661129208514466882e-04,-2.125390456058084965e-04,-1.234754381584934890e-05,1.052899984642863274e-03,-7.745372597128152847e-03,-3.234123811125755310e-02,1.859416626393795013e-02,-8.127486798912286758e-04
-8.971653005573898554e-05,1.576098469513453892e-07,9.840676966632599942e-07,2.773445118009476573e-08,-1.461299143556971103e-05,-1.203718102971151893e-08,8.313509880508718197e-09,-4.720370270661078393e-05,-1.966908894246444106e-05,2.158445749955717474e-05,-7.136773092497605830e-07,5.045657189839403145e-07,-1.050461833074223250e-05,-3.680399096595010633e-09,1.715612233965657651e-05,-6.783672142773866653e-05,4.376493452582508326e-04,7.707271834078710526e-06,-5.486376242203050424e-09,2.329369763742761279e-08,4.794479924186134667e-09,-1.176215164377936162e-06,3.270033133162542072e-09,-1.178325081951925313e-08,-1.519712924391569686e-07,4.189213953509351995e-08,5.793799646198749542e-03,2.821742555170203559e-06,-3.228880086680874228e-05,-2.055277436738833785e-04,-1.031933570629917085e-04,3.976357111241668463e-04
3.436316319493926130e-06,5.697183951269835234e-07,2.516752257986087926e-11,-9.970913678047921280e-11,2.834817678376566619e-07,2.410666666285976589e-10,3.838850903825630212e-10,-2.855948650903883390e-07,-2.814012134422227973e-08,-2.099079938489012420e-05,-6.999394486228993628e-08,2.808522765462839743e-07,9.210399412040715106e-07,1.368716806560144050e-10,3.743578417925164104e-05,8.512444082953152247e-07,6.911394621056388132e-07,1.519489915835503524e-11,2.061945197917580685e-10,4.309511680844479997e-08,-1.520501100458204746e-04,-4.667780473255334073e-08,-2.920454100774350081e-08,-1.666064548544454738e-07,1.540238372399471700e-05,-5.659607268171384931e-06,8.777721327568599463e-10,-4.975490597303178220e-08,1.013277142192237079e-06,-2.598884748294949532e-04,-4.989201261196285486e-05,-1.663701425513863796e-07
2.435800752209615894e-06,9.186078386846929789e-07,1.097093041413366166e-10,1.696624531177803874e-04,6.387204507518617902e-07,5.774928313329041885e-10,2.795887610318459338e-07,-8.053933697738102637e-07,-2.195492356804606970e-07,1.670977799221873283e-04,2.679260591165188998e-09,8.617422281531617045e-06,9.779962510947370902e-07,4.512202000928056123e-10,1.873507599059465178e-11,-8.825695658742915839e-06,3.632898994965216843e-07,1.042421964719819627e-11,7.759794473649606061e-10,4.199683445449409191e-08,3.157339945047965557e-09,5.608151165681363182e-10,7.715393879337284488e-10,6.393370277635312959e-10,6.264682724577141926e-06,1.801239335463833413e-08,2.486240324728328233e-09,-2.623149555347481510e-07,1.025075789584661834e-06,-7.164787803048966452e-06,-4.745571402509085601e-07,-5.765382411482278258e-07
-3.857776755467057228e-05,1.435836560759184977e-09,-1.874297808970859514e-12,-3.140391072520287707e-06,1.548494132919131516e-08,-4.242621445132988001e-12,9.944987541810057508e-12,-1.999584497980322340e-09,-1.096849544524047815e-08,2.166096635392023018e-09,-1.038771707539964950e-10,-1.226058699010934561e-09,1.591514475762778602e-08,9.218893877449563234e-12,-2.892762418493788346e-12,8.628120440334896557e-09,7.508720756277398323e-08,-7.092877717454482145e-13,1.143275491638506836e-11,-1.735672577884983525e-10,-5.435599192971096727e-10,-3.092279099448091984e-09,1.158646118710748851e-04,-9.158337282988426864e-12,1.675790506361352072e-09,9.032536763697862625e-05,-2.818383894320763972e-11,1.988312448020224110e-08,1.714467146030074218e-08,6.706688537860827637e-08,4.657305652244758676e-09,-4.383533536156392074e-09
7.496945559978485107e-02,3.016647882759571075e-02,3.353216698087635450e-06,-3.352972498760209419e-06,1.426894590258598328e-02,1.672572034294717014e-05,3.097547596553340554e-05,5.135601758956909180e-02,-1.310916431248188019e-02,-1.432345306966453791e-04,7.922781514935195446e-05,8.468384854495525360e-03,2.849319949746131897e-02,1.149560102930990979e-05,8.371666240236663725e-07,1.063962876796722412e-01,3.885171562433242798e-02,-6.307112053036689758e-04,1.582690492796245962e-05,1.244251849129796028e-03,8.170767978299409151e-05,-2.128950133919715881e-02,1.634955333429388702e-05,-4.731884473585523665e-05,-2.929882146418094635e-03,2.434107591398060322e-04,7.993960753083229065e-05,-8.239705115556716919e-03,6.325475871562957764e-02,-3.680225461721420288e-03,-6.257743388414382935e-02,1.600086875259876251e-02
4.679223764014750486e-07,2.769056450802054314e-08,-3.024503564263980593e-11,2.324946763110347092e-05,1.821135526824946282e-07,-1.053826054198125917e-10,-4.499706163230143829e-10,1.735708565320237540e-06,-1.732749660732224584e-05,8.974440746101208788e-09,-5.630820254509671940e-10,-5.352608911657341650e-10,1.753993075226389919e-07,-5.642240147318844379e-11,1.469598921721715357e-11,-2.565143513493239880e-04,1.389937210660718847e-06,-3.360655973665416241e-04,-1.385521281038748498e-10,1.326178056260118865e-10,-6.505228022923859044e-10,4.367463546373073768e-08,-8.108713006604872930e-11,-1.580314767934964948e-10,6.001490415741272955e-09,8.461117431579623371e-06,-6.854029011016393724e-10,5.734830921255706926e-08,1.602793844313055160e-07,9.837781362875830382e-07,3.036141151824267581e-07,1.003862806214783632e-07
-4.260591231286525726e-05,-2.569874535396365900e-09,-2.695630177407259964e-12,-1.336110111438415515e-10,1.413881101086644776e-08,-2.365073692445207598e-10,6.979167677806374925e-12,-6.182663714326963600e-09,-1.727013554386758187e-08,2.151601393052260391e-06,-5.426478710823801066e-10,-3.330297371206825119e-09,1.436520147279907178e-08,1.558664135259402173e-11,-9.816038606946797529e-12,7.457936845867152442e-08,4.145350374074041611e-08,-9.771182127304989251e-12,2.287822015167861878e-11,-5.656510815299498063e-10,-1.163871665710303205e-09,-1.385737302683764938e-08,2.301838580853754479e-11,-1.316811937268624888e-11,2.851461955444278829e-09,-4.636292683102283263e-09,-7.387872258401984027e-11,1.448703557116459706e-08,1.699107343711148133e-08,-2.143475441584996588e-08,-3.019571037654600332e-09,-9.739322237578562635e-09
-2.257573418319225311e-02,-1.048707496374845505e-02,1.157602547152691841e-08,5.636978244183410425e-07,-1.454737968742847443e-02,1.066754634848621208e-06,-2.906572547090036096e-07,9.759573638439178467e-02,6.591341644525527954e-02,-7.201669359346851707e-05,-1.251153880730271339e-04,-5.224436972639523447e-05,-3.973135352134704590e-02,-1.247115051228320226e-07,-4.406378872889860077e-10,8.534371852874755859e-02,-1.150533440522849560e-03,-1.346747824371163915e-09,-1.567747602848612587e-07,-2.123896820194204338e-06,1.595715730218216777e-05,1.407262962311506271e-02,-4.409955778328367160e-08,-3.996381536808257806e-08,2.069241600111126900e-04,-1.489984242653008550e-06,1.275744523354660487e-07,1.155461301095783710e-03,-6.541803304571658373e-05,-8.584921061992645264e-02,-1.500937435775995255e-02,-1.153222005814313889e-02
-1.034793537110090256e-02,7.122317701578140259e-02,1.520744990557432175e-05,-1.576121139805763960e-04,2.277846820652484894e-02,4.232040737406350672e-05,1.008241670206189156e-04,-3.976109251379966736e-02,-4.964524507522583008e-02,-9.492930839769542217e-04,3.234819741919636726e-04,1.974482834339141846e-02,7.168987393379211426e-02,5.687957673217169940e-05,1.598702947376295924e-04,1.157960668206214905e-01,-2.190419007092714310e-03,-4.261333685917634284e-08,6.992735870881006122e-05,2.211551414802670479e-03,2.175722765969112515e-04,5.839119106531143188e-02,8.372464071726426482e-05,6.053827019059099257e-05,-7.107617799192667007e-03,-1.739489380270242691e-05,2.792815503198653460e-04,-5.487387534230947495e-03,7.821759581565856934e-02,-2.973265573382377625e-02,-8.229727298021316528e-02,-1.592006161808967590e-02
3.333472307076590369e-07,3.540067083918074786e-08,-1.407897930183477087e-11,4.145504425845381036e-11,4.597398728378720989e-08,-4.309128485147084575e-07,-1.402767901836909914e-10,-8.785080353845842183e-06,6.432570387460145866e-08,9.727982863694251137e-09,-2.912321217518609728e-10,3.592438790889218581e-09,1.197803669583663577e-07,-3.009344162752114471e-11,2.683672208070309040e-11,4.394938969198847190e-06,-3.115776780759915709e-05,-1.763991405202836038e-12,-5.583242201900873170e-11,6.991830447944380467e-10,-2.211561073162116031e-10,2.907052554235178832e-08,-3.456468791740441304e-11,-1.660190596108890304e-10,7.346666608398777498e-10,-2.048055822156946704e-11,-4.289444910376971620e-10,2.636016738222224376e-08,2.529329776734812185e-07,6.400652523552707862e-07,-2.089204062940552831e-04,1.452110467425882234e-07
-2.219251271640132472e-08,2.910717222803782533e-09,-4.153931105338459773e-12,3.160438577509694369e-11,1.722858833375084942e-08,-9.098569987708859941e-12,-3.285832717025982674e-11,-9.768657882602838072e-09,-1.321394549336218915e-08,-9.624676056141368008e-11,-7.998155610033919061e-11,1.027913310025496685e-09,5.347928322407824453e-09,-3.971150665249556511e-12,1.786038595393956568e-14,-2.475622018494050280e-08,-8.572430765241279005e-09,-3.365092916368358014e-15,1.006672176173672995e-11,1.035931479487217644e-10,-5.128875102400343167e-11,-1.742277710992112816e-10,1.423430383978852021e-11,-2.027172527063747509e-11,4.390445229596195986e-10,-5.581849109148606658e-05,4.408947512635208454e-11,8.689158725871948263e-09,9.574610437823594111e-09,-3.024947758945017995e-08,-1.106207747625376214e-08,6.334310853617353132e-09
-1.724758590171404649e-06,-7.100153993633284699e-07,-1.171742008976295324e-10,9.058261363215081019e-10,1.697294322866582661e-07,2.274346770718693733e-04,-6.050785259503754787e-07,-1.782119761628564447e-05,3.591845540995564079e-07,-2.700608270345128403e-08,-2.832460488377819274e-09,2.001138454943429679e-06,-9.117688364312925842e-07,-3.134277282157427180e-10,-1.836678649169698474e-07,-4.267187250661663711e-05,9.188718763653014321e-08,-1.222417132795694528e-11,-3.808285631290431184e-10,-3.954789207227804582e-08,-2.508715901683444827e-09,5.415758508320323017e-09,-8.871410273059154861e-10,-5.984003292880402114e-10,1.276689829410315724e-07,-7.432225945791515187e-09,-2.568192103424848938e-09,3.423273540192894870e-07,-4.499764258980576415e-07,-1.748382965160999447e-05,6.273306780713028274e-07,4.170729823727015173e-07
9.388115979058753169e-11,1.457635054324946111e-11,-2.275305154518774547e-14,2.982241312565747648e-06,1.991157412561950224e-11,-5.300381173464069340e-14,-1.345322643434357368e-13,-4.140095200000359910e-08,2.588631392574924917e-11,2.943771094943148370e-12,-2.502905109731667910e-13,1.675564851796873533e-12,7.028760906635511674e-11,-2.865914970617833291e-14,2.405237933396863446e-16,7.906010568436983021e-11,1.521621544042783825e-11,7.866197622473976997e-15,-5.598977905656513099e-14,2.133775334157636538e-13,-1.953067834412416937e-13,8.914376181667904575e-12,-3.018954850648666866e-14,-4.854942402959805392e-13,6.633868801508846502e-13,-3.347313474576923964e-13,1.346967039316838977e-14,4.663647940050807961e-12,6.384281991955731428e-11,1.631609257424226911e-11,8.944901069840582863e-11,4.008427270663084130e-11
6.064789742231369019e-02,-5.096184834837913513e-02,-5.407294338510837406e-06,3.821767677436582744e-05,-1.694075949490070343e-02,-1.663649891270324588e-05,-4.284078022465109825e-05,-3.776214644312858582e-02,-2.139927446842193604e-02,2.439804608002305031e-03,-1.364372146781533957e-04,-3.443130059167742729e-03,-4.335568845272064209e-02,-1.852092464105226099e-05,-1.150202848521075794e-07,6.153386458754539490e-02,-1.814280077815055847e-02,-1.917771470516527188e-07,-1.750046612869482487e-05,-4.828574310522526503e-04,-6.645484245382249355e-05,2.626993320882320404e-02,2.571413642726838589e-04,4.839386674575507641e-04,3.325613215565681458e-03,7.895484304754063487e-05,-1.265698956558480859e-04,-1.813099160790443420e-02,8.746296167373657227e-03,-9.653536230325698853e-02,1.174787282943725586e-01,8.012984693050384521e-02
-4.136414080858230591e-02,-1.326350611634552479e-03,6.439445314754266292e-07,-2.370822949160356075e-05,2.330426592379808426e-03,1.835417378970305435e-06,2.088390971266562701e-07,6.051472201943397522e-02,9.794756770133972168e-03,-2.800995207508094609e-05,2.887444225052604452e-06,-3.258088327129371464e-05,1.067474368028342724e-03,1.665204081291449256e-06,-5.604471908782215905e-08,1.512462738901376724e-02,5.272938683629035950e-02,-4.004771980703480949e-08,1.872204393293941393e-06,-1.130459895648527890e-05,6.106207365519367158e-06,-2.051422838121652603e-03,2.396334821241907775e-06,-5.743083164588824729e-08,1.160289975814521313e-04,-2.305503221577964723e-05,1.188455371448071674e-05,2.887035952880978584e-03,4.206250421702861786e-03,-6.315916031599044800e-02,1.640214934013783932e-03,-6.352076306939125061e-03
-8.982694894075393677e-02,-2.913336269557476044e-02,-5.696755579265300184e-06,-2.483394609953393228e-06,-3.307616338133811951e-03,-1.308693572354968637e-05,-4.443985744728706777e-05,9.733118116855621338e-02,7.608051598072052002e-02,9.105714270845055580e-04,-5.144918759469874203e-05,1.851880340836942196e-03,-2.298382297158241272e-02,-1.087842974811792374e-05,-2.434908310533501208e-07,-3.853955771774053574e-03,5.082773044705390930e-03,3.142827190458774567e-04,-1.313992470386438072e-05,2.120261488016694784e-04,-6.819026748416945338e-05,-2.647345699369907379e-02,-1.799458368623163551e-05,-1.839123979152645916e-05,1.204957137815654278e-03,-2.649336420290637761e-05,-8.266541408374905586e-05,-5.979137029498815536e-03,-9.281429811380803585e-04,3.648237138986587524e-02,6.674318760633468628e-02,-5.899484828114509583e-02
1.631113910605108686e-09,1.863130483226171918e-10,-2.141140861616416813e-13,1.015722065917518124e-13,4.247766860476787087e-10,8.307873144985933322e-08,-1.316120823435795728e-12,2.435223578345357964e-09,3.575672646860539317e-09,8.540045892679870576e-10,-3.785640204090334748e-12,6.521072570819796965e-11,9.371909914790421681e-10,-3.184372524781681202e-13,-1.065367396222427487e-04,7.714866256947061629e-08,2.020967171389997930e-09,2.452316127943277024e-11,-6.019212363782278086e-13,2.427178033212462616e-12,-3.021930579036324893e-12,-2.177642727474449202e-06,-2.308734800560152678e-13,-1.263698347353514606e-13,1.416742764770440033e-11,-3.928315463717912959e-13,-7.602867754030739889e-06,2.522863307152789503e-10,6.905470639750888040e-10,3.898267042501402102e-09,-3.634964969023712911e-07,1.144777495021287450e-09
-4.633579030632972717e-02,-8.825046010315418243e-03,2.206869567089597695e-06,-1.110513549065217376e-04,3.007068112492561340e-02,-1.125002108892658725e-05,2.745861456787679344e-05,9.685000032186508179e-02,4.133362323045730591e-02,3.261558245867490768e-03,-2.731201857386622578e-05,-5.771000869572162628e-03,2.361457422375679016e-02,-6.682963515913797892e-08,-6.604953455280337948e-07,1.168870925903320312e-02,7.086162269115447998e-02,1.221967977471649647e-05,2.349081341890268959e-06,-1.828021777328103781e-04,-9.857842087512835860e-05,-1.270275842398405075e-02,-3.080792566834134050e-06,9.471771591051947325e-06,-1.137990388087928295e-03,-7.881184865254908800e-05,4.035215533804148436e-05,2.886636927723884583e-02,2.080645971000194550e-02,-7.087338715791702271e-02,3.001290373504161835e-02,1.007341966032981873e-02
-4.602449917001649737e-05,-4.361411356512689963e-06,3.538959125748419865e-09,-1.055689757833988551e-09,-3.796859346039127558e-06,-2.700913448450137366e-08,3.138150361792213516e-08,-2.016494545387104154e-05,-1.319809416600037366e-05,-1.022586047838558443e-06,1.542960248457347916e-08,-1.874092134812599397e-07,-2.191699968534521759e-05,2.651826314092886605e-09,3.608985332803626989e-11,1.846043596742674708e-05,-3.881277734762988985e-05,2.133689486072398722e-05,1.856415687839785278e-09,-3.933506675934950181e-08,-1.480176724726334214e-04,-5.231335308053530753e-06,8.176633592427151598e-09,1.562292339940540842e-08,3.568036117940209806e-05,1.337952562607824802e-04,2.317267977502979193e-08,-6.254046638787258416e-06,-2.036903242697007954e-05,-5.047593367635272443e-05,-3.030379048141185194e-05,-2.125057653756812215e-05
1.762517839670181274e-01,4.856029897928237915e-02,6.227707217476563528e-06,-1.071084479917772114e-04,7.453352957963943481e-02,-2.137946867151185870e-04,6.380540435202419758e-05,-1.892442256212234497e-02,8.404010534286499023e-02,4.768417682498693466e-03,5.704439900000579655e-05,2.734945528209209442e-02,8.585248887538909912e-02,1.847874955274164677e-05,1.251424578185833525e-06,1.261716187000274658e-01,1.571121998131275177e-02,1.123694914895168040e-06,3.623338488978333771e-05,3.308897837996482849e-03,1.007961254799738526e-04,-1.427348144352436066e-02,2.946917084045708179e-05,3.241550803068093956e-05,-6.209431216120719910e-03,6.547517841681838036e-04,1.374877319904044271e-04,4.857639595866203308e-02,7.364956289529800415e-02,-1.802994497120380402e-02,1.465984135866165161e-01,8.579963445663452148e-02
6.452979484095067164e-09,3.774661416766633693e-10,-6.327277026971223073e-13,7.079273148594134035e-13,1.364385271429569002e-09,-8.379920473089441657e-07,-4.682135321815161788e-12,3.288963990044635466e-09,1.949349348606688181e-09,1.203092665491567459e-07,-1.026253994979020590e-11,-4.611206815691160088e-12,2.988760794409017763e-09,-1.047098497318488253e-12,-1.633470004494975286e-14,-2.681366140677710064e-06,6.334704760746490138e-09,-1.361999756548234672e-14,-1.883555594481278739e-12,-2.707705208052774148e-13,6.875461571603791455e-12,9.992899840938207490e-10,-1.536688853422119028e-12,-3.080575725067369319e-12,-1.359427528768719640e-06,-5.378301536768104185e-12,-1.304590029754804092e-11,9.350066276780921726e-10,2.705661694690775221e-09,6.694406806673214305e-09,4.802453545948992542e-09,1.757214374009663516e-09
1.332048773765563965e-01,3.954402357339859009e-02,6.666306944680400193e-06,1.972611207747831941e-04,1.381813269108533859e-02,1.872509892564266920e-05,4.990976231056265533e-05,-6.082743406295776367e-02,1.601897925138473511e-02,-5.343465018086135387e-04,1.328856451436877251e-04,4.446218255907297134e-03,3.362565487623214722e-02,1.822092599468305707e-05,-1.418551164533710107e-05,-1.132355034351348877e-01,1.101573705673217773e-01,1.402393792204748024e-07,2.211594801337923855e-05,7.752978126518428326e-04,1.423104113200679421e-04,-3.099715337157249451e-02,2.907319867517799139e-05,3.008692328876350075e-05,-3.426925279200077057e-03,3.484573244350031018e-05,1.252062065759673715e-04,-2.982549555599689484e-02,-2.455578185617923737e-03,3.774980455636978149e-02,-7.148160785436630249e-02,2.940779365599155426e-02
-3.785498440265655518e-02,2.772822789847850800e-02,3.044479626623797230e-06,-1.742680251481942832e-05,1.330855116248130798e-02,1.187058205687208101e-05,3.087548975599929690e-05,3.577920421957969666e-02,-1.107263118028640747e-01,6.749866879545152187e-04,6.457037670770660043e-05,1.111250743269920349e-02,2.892632968723773956e-02,1.964822513400577009e-05,2.565248564678768162e-07,-5.734337028115987778e-03,3.328392282128334045e-02,5.506627331897107069e-08,2.875243990274611861e-05,1.678120228461921215e-03,5.123280789121054113e-05,-4.737011156976222992e-03,-1.163117758551379666e-05,2.018326085817534477e-05,-2.776268869638442993e-03,7.102722884155809879e-05,9.761475666891783476e-05,-3.136341460049152374e-03,5.829095095396041870e-02,-2.377439662814140320e-02,7.768131047487258911e-02,-5.451986100524663925e-03
-4.799315433956508059e-07,2.892051753633495537e-08,-4.310889839542753066e-11,-1.705598856593937285e-11,8.695963771288006683e-08,-1.777242658596023261e-10,-2.842836799299419681e-10,-1.231357487085915636e-07,-2.962288547792013560e-08,8.908128457107977738e-09,-7.782313127258078111e-10,-8.468561407681818309e-10,1.651928904777832940e-08,-6.772099547802667985e-11,-4.749850076517063424e-14,-1.905997919493529480e-07,-1.537784015681609162e-07,-6.782401788633929396e-13,-1.177784675343573895e-10,-6.288075615756838488e-11,-7.929669143535988951e-10,1.729636167624448717e-08,-9.719326038437614557e-11,-1.932706356067015463e-10,3.224326805550958852e-09,9.407691986540456242e-11,-5.604868791309058906e-10,4.071896952950737614e-08,4.772099515548688942e-08,-2.716116114243050106e-07,-1.568150480579788564e-07,1.614794342685854645e-08
1.633204817771911621e-01,6.858478486537933350e-02,7.569636636617360637e-06,-9.242571832146495581e-05,4.042540118098258972e-02,1.582664481247775257e-05,6.331102486001327634e-05,6.156662479043006897e-02,1.114363446831703186e-01,1.370358950225636363e-04,1.251852227142080665e-04,1.602668501436710358e-02,9.726757556200027466e-02,2.427003346383571625e-05,8.943736133915081155e-07,6.531649082899093628e-02,3.294811025261878967e-02,7.285115657396090683e-07,3.235273834434337914e-05,1.896152039989829063e-03,1.321806485066190362e-04,8.719527721405029297e-02,3.798596299020573497e-05,3.648869460448622704e-05,-6.118905264884233475e-03,4.033355216961354017e-04,1.519352372270077467e-04,7.694205734878778458e-03,-2.653583139181137085e-02,-9.080614149570465088e-02,-8.194089680910110474e-02,1.187808252871036530e-02
-1.818857342004776001e-02,3.727271780371665955e-02,5.413829057943075895e-06,-9.917897114064544439e-05,2.779859676957130432e-02,1.457684993511065841e-05,5.087630052003078163e-05,7.194921839982271194e-03,6.172702461481094360e-02,2.106697065755724907e-03,8.398961654165759683e-05,9.937508963048458099e-03,6.680243462324142456e-02,1.377988337480928749e-05,6.934748739695351105e-07,3.842815011739730835e-02,2.611238881945610046e-02,5.476206865751009900e-07,2.008742376347072423e-05,1.487653004005551338e-03,5.565808896790258586e-05,5.061911791563034058e-02,2.163785211450885981e-05,2.956614116556011140e-05,-4.424563609063625336e-03,2.662368642631918192e-04,1.215355514432303607e-04,1.253851875662803650e-02,5.928720161318778992e-02,-4.837447311729192734e-03,1.578646525740623474e-02,-3.294871887192130089e-03
-1.295935305734019494e-07,-7.877332564021344297e-08,2.036797640270204823e-11,4.931718228240455915e-11,-6.564006582721049199e-08,9.916963777945042580e-11,1.782475694822593937e-10,-1.039956813997378049e-07,-9.493575703345413785e-08,-2.534501497564178862e-09,3.701754180962524288e-10,-9.995383409844293965e-10,-1.796251751784438966e-07,9.805716134902997538e-12,1.061537468170781207e-12,-1.117352681490046962e-07,-2.377419860977170174e-07,4.917198918007181785e-13,3.079079005652296530e-11,1.951172556857727614e-10,-3.337598253327911380e-11,-3.786189495258440729e-08,1.548839702325555123e-11,1.328553239643426309e-10,-2.097596540906465634e-09,3.932855707766691467e-10,5.536884839507649758e-10,-3.448186802756936231e-08,-1.661619251080992399e-07,-3.183639023518480826e-07,-7.765540033233264694e-08,-8.656757444214235875e-08
-3.735807331395335495e-05,1.776388369734149819e-09,-6.759843986653413239e-12,-1.415395300963240288e-10,3.018339711502449063e-08,-2.848273526756539553e-11,-5.229474145385104578e-11,5.414383608126627223e-08,2.202547833007884037e-08,1.658263859560804576e-09,-1.296884405421749875e-10,-1.952535022553547606e-09,3.170397633311949903e-08,-1.420817630215509553e-11,-1.741726744384705650e-13,6.224904325335955946e-08,6.723639245365120587e-08,-2.309727387649063157e-13,-3.089680247758685994e-11,-3.330645481636196337e-10,-1.071775931893448330e-10,8.627029757235504803e-09,-2.972093404718378906e-11,-3.292952022171391491e-11,2.641807217429459342e-09,-4.806527067557908595e-05,4.540757006510354188e-11,1.482737665980948805e-08,2.967916046259233553e-08,2.170352644270678866e-07,1.377320870687981369e-07,2.122149211913892941e-08
9.790787473320960999e-03,6.458311527967453003e-02,9.277153367293067276e-06,7.885300874477252364e-05,5.589827150106430054e-02,2.614433833514340222e-05,8.210895612137392163e-05,3.290437906980514526e-02,-9.055198729038238525e-02,1.051295083016157150e-03,1.632120256545022130e-04,1.925639435648918152e-02,8.089105039834976196e-02,3.188933260389603674e-05,-7.964414544403553009e-05,-1.100114807486534119e-01,1.458177566528320312e-01,1.353151617422554409e-07,4.220867776894010603e-05,2.333079697564244270e-03,1.049002457875758410e-04,6.076272204518318176e-02,5.190859883441589773e-05,4.669793270295485854e-05,-7.001603487879037857e-03,5.333690205588936806e-04,-1.984810223802924156e-03,-6.481049582362174988e-03,6.261107325553894043e-02,5.260005220770835876e-02,-5.802287161350250244e-02,-7.029138505458831787e-02
1.634975373744964600e-01,1.581197977066040039e-02,2.009383706536027603e-06,-1.583630910317879170e-05,2.849969547241926193e-03,1.892257932922802866e-05,1.909631100716069341e-05,1.166916638612747192e-01,5.154627561569213867e-02,3.469087183475494385e-03,2.520570888009388000e-05,1.361935120075941086e-02,2.895101718604564667e-02,5.782804237242089584e-06,1.023376967168587726e-06,2.152233757078647614e-02,1.470265239477157593e-01,7.456002322214771993e-07,1.523267201264388859e-05,1.693874713964760303e-03,9.018590208142995834e-05,-1.430505886673927307e-02,1.156720736616989598e-05,1.795160096662584692e-05,-1.983451424166560173e-03,6.426317850127816200e-04,6.783362186979502439e-05,-2.635892108082771301e-02,6.683985143899917603e-02,-1.253579044714570045e-03,2.489016763865947723e-02,5.351497232913970947e-02
6.185097247362136841e-02,1.096990611404180527e-02,2.817832410073606297e-06,-8.055547368712723255e-05,1.912616007030010223e-02,1.075803538697073236e-05,4.613438068190589547e-05,4.021740332245826721e-02,-9.672567248344421387e-02,3.928942140191793442e-03,8.887391231837682426e-06,8.797912858426570892e-03,4.549854248762130737e-02,6.163520538393640891e-06,3.331092557345982641e-07,-3.073391690850257874e-02,1.162338033318519592e-01,4.566758775581547525e-07,1.367199092783266678e-05,1.378615503199398518e-03,-3.567194823972386075e-07,-1.457053236663341522e-02,1.189799240819411352e-05,1.842124038375914097e-05,-2.984791295602917671e-03,2.193024702137336135e-04,7.428848039126023650e-05,1.537596341222524643e-02,4.215440899133682251e-02,7.048726081848144531e-02,-3.793933615088462830e-02,-5.161830782890319824e-02
-2.113425405696034431e-03,-3.385028094271547161e-06,6.981665467975517458e-09,5.189294824958778918e-07,-5.234116542851552367e-06,1.343242228557528506e-08,6.190978751874354202e-08,-6.073543336242437363e-04,-1.655822125030681491e-04,-7.219160824689652145e-09,3.816783760157704819e-07,-2.135434300498673110e-07,-9.252738527720794082e-05,2.699501600034182047e-08,-1.556658357770857037e-09,-5.190323572605848312e-04,-1.291698543354868889e-03,1.971743404283188283e-05,4.309183410100558831e-08,-3.725330088855116628e-08,1.630819781439640792e-07,-1.706886723695788532e-05,3.440012363853384159e-08,3.112466373522693175e-08,3.377797099801682634e-07,1.123494075727649033e-05,-5.877827425138093531e-05,-8.954918484960217029e-06,-8.520014671375975013e-05,-4.711021319963037968e-04,4.566965159028768539e-03,-6.425729952752590179e-05
-4.245727136731147766e-02,-6.128600984811782837e-02,-3.983273472840664908e-06,-1.763627005857415497e-05,-3.227122873067855835e-02,-1.493935815233271569e-05,4.461944263312034309e-05,7.121274620294570923e-02,-1.419123169034719467e-02,4.786327946931123734e-03,8.683163468958809972e-05,-8.219301700592041016e-03,-9.771443903446197510e-03,-1.637982859392650425e-05,-5.617515057565469760e-07,2.022016607224941254e-02,6.909072399139404297e-02,-2.662310123469069367e-07,-1.512464496045140550e-05,-7.675005472265183926e-04,-6.028615462128072977e-05,-4.991868138313293457e-02,-3.060283415834419429e-05,-1.395310846419306472e-05,3.333762753754854202e-03,-3.202896332368254662e-04,2.499724214430898428e-04,4.421452060341835022e-02,1.909084245562553406e-02,1.373003004118800163e-03,4.617522656917572021e-02,-3.449047729372978210e-02
1.078822293720804737e-07,9.797696876034933666e-09,-2.510714075878994755e-12,3.087382719968445599e-05,4.351660809476243230e-09,3.656671765384089667e-07,2.478522812335293146e-12,-3.014436742887482978e-06,-5.477193698588678217e-10,3.496457567919719622e-09,-6.621760206826365902e-08,3.931548864244405195e-09,2.351220373952855880e-08,-5.666349334187970044e-12,8.583394411898481735e-12,2.453064098517643288e-06,-3.429119487918796949e-06,-8.075232472037896514e-06,-9.140821780051489043e-12,6.127701679403685375e-10,-1.369700686204566864e-09,1.175393481389619410e-05,-5.624887274707779383e-12,3.650431953244881456e-12,-1.284373274401673370e-09,1.070039168382663775e-09,2.215345788758593670e-11,-2.302145730936899781e-06,4.284763832629323588e-08,-4.204982360533904284e-06,-4.043607670922710895e-09,-3.059341668887327614e-09
-1.579849282506984309e-07,-6.815380970692785922e-08,2.856550586349815291e-11,-6.298490006884094328e-06,-6.617454317847659695e-08,1.228634693983821080e-10,2.359324124956430069e-10,-6.306778033149385010e-08,-4.907645134721860813e-08,1.294002925644743840e-11,5.802389124731632819e-10,-5.112552603492304115e-09,-1.698848990372425760e-07,6.986247084311836275e-12,6.619347539711661899e-13,-2.391885232100321446e-07,-1.374621945160470204e-07,1.230261416828790089e-13,2.317934212625605284e-11,-2.743796023718658716e-10,5.223087518047009326e-10,-5.856584550656407373e-08,2.671460833880701102e-06,6.203722258124599875e-11,-3.914955304935574532e-04,4.971564826483643174e-10,6.701570964828817978e-10,-3.453425279076327570e-07,-1.573161938495104550e-07,-2.007926411806693068e-07,-9.812465862069075229e-08,-9.217783514259281219e-08
1.168341040611267090e-01,1.410365453921258450e-03,1.203914166580943856e-06,-5.752822107751853764e-05,1.686422713100910187e-02,9.927586688718292862e-06,2.315087294846307486e-05,-4.286892339587211609e-02,1.073768595233559608e-03,4.557106178253889084e-03,-1.841206176322884858e-05,1.132153067737817764e-02,3.017912432551383972e-02,2.197140702264732681e-06,6.232593250388163142e-07,7.566371560096740723e-02,-4.843975417315959930e-03,6.101950589254556689e-07,1.177007470687385648e-05,1.515769865363836288e-03,6.560974725289270282e-05,1.237932825461030006e-03,3.775047161980182864e-06,6.244848009373527020e-06,-1.501815160736441612e-03,3.154512378387153149e-04,4.282208101358264685e-05,1.483468711376190186e-02,3.417471051216125488e-02,-4.748480394482612610e-02,6.358783692121505737e-02,3.023580461740493774e-02
9.538768231868743896e-02,5.792876705527305603e-02,5.642251380777452141e-06,9.321397374151274562e-05,4.746114462614059448e-02,3.934073902200907469e-05,5.509679613169282675e-05,1.284162849187850952e-01,-1.735299676656723022e-01,2.097808523103594780e-03,1.318534632446244359e-04,3.563360124826431274e-02,6.338417530059814453e-02,2.202550967922434211e-05,2.072268671327037737e-06,5.887728184461593628e-02,9.109022468328475952e-02,1.482808102082344703e-06,3.912925240001641214e-05,3.278904827311635017e-03,2.117771364282816648e-04,3.266708180308341980e-02,1.109147342504002154e-04,3.779738835874013603e-05,-5.962098948657512665e-03,8.717870223335921764e-04,1.588197628734633327e-04,-6.399231962859630585e-03,4.633758217096328735e-02,6.009300425648689270e-02,3.859034553170204163e-02,1.616237685084342957e-02
-7.119253950804704800e-07,3.802822057252797094e-09,-3.477392852835325954e-12,5.045005212200859290e-12,8.142111873610247130e-09,-1.232722431077082348e-11,-2.690463130061715447e-11,5.394198510089154297e-08,2.275730182077495556e-08,9.669036682424803075e-10,-6.084092257774287305e-11,1.375757563426560637e-10,3.843533491476591735e-08,-6.041817653817949108e-12,-5.531954560232532625e-14,-1.825983417802490294e-06,-2.516415165132457332e-08,-5.993585483607052899e-14,-1.121869090681126835e-11,2.777051505420402577e-11,-5.149741744148172984e-11,4.878505599492655165e-09,-8.915636458273201725e-12,-1.775967047035198476e-11,5.177875905815199076e-10,-1.872841291772342487e-11,-7.679001878813096482e-11,5.443892003853534334e-09,3.089292732738613267e-08,-1.054417225532233715e-05,-5.363030908256405382e-08,1.545414818338031182e-08
-2.559521271905396134e-05,1.225440087182505522e-07,-6.976303562611363418e-11,1.641918601080760709e-08,2.250486375032778597e-07,2.118251813953975216e-06,-1.076966738011719826e-09,8.870043188835552428e-07,7.576294365208013915e-07,2.086067674156311114e-08,-2.963386123155942187e-06,3.632946800280478783e-06,8.904116270969097968e-07,-1.207657585045041060e-10,-2.256140424223423979e-13,8.414837066084146500e-04,1.945308213180396706e-06,-3.829502687180408316e-12,-2.303223445299096284e-10,9.764163451109197922e-07,-1.410182082217659172e-09,2.747141536474373424e-07,-1.860207959891724272e-10,-1.561759563628584146e-05,5.600865620181139093e-07,-3.657316556200385094e-04,-7.778507424518465996e-04,1.211822961977304658e-07,6.032173018866160419e-07,-1.091472455300390720e-03,1.836302362789865583e-05,3.830978130281437188e-07
-6.304468214511871338e-02,3.319508582353591919e-02,5.835597676195902750e-06,-8.684258500579744577e-05,1.784603856503963470e-02,-3.934434789698570967e-05,2.091592978104017675e-05,-1.047905418090522289e-03,1.716788858175277710e-02,5.486856680363416672e-04,4.882807843387126923e-05,-4.554634797386825085e-04,2.998054958879947662e-02,1.303222779824864119e-05,6.394662932507344522e-08,7.684407383203506470e-02,7.302477210760116577e-02,-2.269439960400632117e-07,1.383900689688744023e-05,3.734854690264910460e-04,-1.225594314746558666e-05,-5.333653837442398071e-02,2.050412695098202676e-05,3.085372736677527428e-05,-3.705187467858195305e-03,4.750588050228543580e-05,8.858415822032839060e-05,1.770494133234024048e-02,2.873198129236698151e-02,1.152676939964294434e-01,7.539114356040954590e-02,-6.823806464672088623e-02
4.413831979036331177e-02,4.613697156310081482e-02,5.677823537553194910e-06,-1.992961551877669990e-05,1.391944568604230881e-02,1.665535637584980577e-05,6.015473991283215582e-05,-9.242195636034011841e-02,-6.010176613926887512e-02,2.735298359766602516e-03,8.626612543594092131e-05,1.791316643357276917e-02,6.723903119564056396e-02,1.716849146760068834e-05,-1.127735959016717970e-05,-6.271886080503463745e-02,6.459733843803405762e-02,-1.322160755989898462e-06,2.923728607129305601e-05,2.123260404914617538e-03,2.034127974184229970e-04,-1.336721796542406082e-02,3.084544005105271935e-05,3.024388206540606916e-05,-3.862495068460702896e-03,4.236561653669923544e-04,1.309163781115785241e-04,-2.098032273352146149e-02,5.948467645794153214e-03,8.764987438917160034e-02,1.108320504426956177e-01,-3.476291894912719727e-02
1.784566666174214333e-05,6.799842466875816172e-09,-3.985499864161967665e-12,2.754043659791705068e-09,4.602679837262257934e-06,-1.232932159145327944e-11,8.536516543244943023e-05,2.512767061091381038e-08,-1.253033988177776337e-04,-1.265849095943849534e-05,-6.393963136730462793e-11,6.264373223530128598e-05,3.009151683386335208e-08,-5.262154427476684049e-12,-4.680613674423739212e-10,5.321625451415457064e-08,-5.603379577223677188e-06,-1.314007249675341882e-07,-1.209487891784544189e-11,2.649416241951030315e-10,5.818090721732005477e-05,7.569594728806805506e-09,-9.521915374233191898e-12,-3.350720395589590339e-11,1.144590987678384408e-05,1.320476106930756899e-11,1.311717642238363624e-05,1.129760640594668075e-08,-2.474665279805776663e-06,7.705226323651004350e-08,5.181463791359419702e-08,2.927733433466528368e-08
4.642593488097190857e-02,-4.456811770796775818e-02,1.430653355782851577e-06,6.348516035359352827e-05,-8.315376006066799164e-03,7.890053893788717687e-06,9.567917913955170661e-06,-9.985049068927764893e-02,6.197688356041908264e-02,2.155567926820367575e-04,8.643936780572403222e-06,-6.708011496812105179e-03,-4.607561230659484863e-02,-1.425052232661982998e-05,2.013520315813366324e-06,-3.731794282793998718e-02,-5.569677799940109253e-02,2.128441849436057964e-07,-5.446118393592769280e-06,-1.157579827122390270e-03,4.187014928902499378e-05,-3.749692067503929138e-02,-2.441395372443366796e-05,2.564911665103863925e-05,4.256428685039281845e-03,-1.551611239847261459e-05,7.565331179648637772e-05,2.032010443508625031e-02,-8.910349011421203613e-02,1.360454708337783813e-01,-1.020322460681200027e-02,4.531190171837806702e-02
1.929260093902485096e-07,1.452754982977921827e-08,1.026430069828165870e-07,1.323798883012816674e-11,-9.460652705683969543e-08,5.241540748102124780e-07,-1.253449150029339876e-10,1.324556961890266393e-07,8.809863061287614983e-08,2.138171475962735713e-05,-3.855770410154946148e-05,1.979904434845636274e-10,6.132285790272362647e-08,-1.961127094052272923e-11,-2.966692724815089832e-10,-9.128214878728613257e-05,1.237128799402853474e-07,-2.677226387630404769e-13,-6.971048044368544083e-11,-1.146697944931496238e-10,-1.856098097050562501e-04,1.534323779139867838e-08,6.253162428038194776e-05,-8.980966664795531074e-11,1.237488595506874844e-05,-3.084273114684066286e-10,-2.656551090218783884e-10,1.999348775427733926e-08,2.107353935798528255e-07,1.657649733033395023e-07,9.665017586257818039e-08,3.700465711631295562e-08
-4.763734526932239532e-03,-7.411972037516534328e-04,4.032764309158665128e-07,1.894024848070330336e-07,-3.365403099451214075e-04,1.688959741841244977e-06,1.886708787424140610e-06,-4.829063080251216888e-03,9.676511399447917938e-04,-5.206648711464367807e-05,5.531222086574416608e-06,-9.802958084037527442e-05,-2.028264105319976807e-03,5.138387564329605084e-07,3.920369362475639718e-09,6.123472470790147781e-03,4.642591811716556549e-03,6.845943811839561022e-09,1.539537379358080216e-06,-5.817610144731588662e-05,6.299002052401192486e-06,-3.715680504683405161e-04,5.196134225116111338e-07,1.542208906357700471e-06,-4.316421836847439408e-06,1.729997052279941272e-06,8.304677976411767304e-06,-1.294566754950210452e-04,-9.093801490962505341e-04,3.509300760924816132e-03,-1.675731316208839417e-02,4.959458601661026478e-04
9.377276897430419922e-02,1.125220116227865219e-02,3.668015324365114793e-06,-8.390193397644907236e-05,1.453664340078830719e-02,7.088225174811668694e-06,2.804052746796514839e-05,5.076979100704193115e-02,3.243083506822586060e-02,1.724374364130198956e-03,3.822299913736060262e-05,-2.549028613429982215e-05,3.854924812912940979e-02,6.085445420467294753e-06,1.175422070787135453e-07,8.441147208213806152e-02,3.043657541275024414e-02,1.231588555583584821e-07,6.468079845944885164e-06,3.393699589651077986e-04,1.531472207716433331e-06,-2.802623063325881958e-02,1.090044133889023215e-05,2.117416443070396781e-05,-2.332476666197180748e-03,5.908583261771127582e-05,6.007933916407637298e-05,3.731594653800129890e-03,2.245745435357093811e-02,-6.174996495246887207e-02,-7.284647971391677856e-02,-6.839219480752944946e-03
-8.728384273126721382e-05,2.673016069820732810e-06,-1.470995131258590050e-10,2.668477691258885898e-06,-8.885303941497113556e-06,-8.547387686519414274e-09,3.562662165279562032e-09,-1.019721894408576190e-04,-6.263749583013122901e-06,-9.094205779547337443e-07,-7.280300806655759516e-09,2.531097038627194706e-07,-9.129236104854498990e-07,-1.080762923599820624e-09,6.333630881272256374e-05,-6.032610326656140387e-05,1.279991120100021362e-04,2.773520996202094580e-11,-5.942633052313794906e-09,4.997923852556596103e-08,4.545492629404179752e-06,2.084399056911934167e-06,-1.060518672879595670e-09,-9.568510428437093651e-10,-5.597183871941524558e-08,9.000102727441117167e-05,-2.363691287143865338e-08,-1.360328951705014333e-05,-3.101507672909065150e-06,-6.119030149420723319e-05,-2.307886279595550150e-05,2.840152774297166616e-06
7.167837768793106079e-02,2.894161827862262726e-02,4.666302174882730469e-06,-1.265031896764412522e-04,7.322090119123458862e-02,2.184018921980168670e-05,5.172374221729114652e-05,8.224982768297195435e-02,5.323381349444389343e-02,2.392317401245236397e-03,3.331453990540467203e-05,1.719586737453937531e-02,5.076567456126213074e-02,1.166943820862798020e-05,7.383783326986304019e-07,-1.187336295843124390e-01,6.355202943086624146e-02,3.060281960642896593e-05,2.638583828229457140e-05,2.022605389356613159e-03,7.263280713232234120e-05,-3.182547166943550110e-02,1.057944155036238953e-05,2.939832120318897069e-05,-3.846497507765889168e-03,4.480939824134111404e-04,1.100638110074214637e-04,5.464030057191848755e-02,8.283010125160217285e-02,8.369439840316772461e-02,-4.564944282174110413e-02,1.643369905650615692e-02
8.155198294446108775e-09,6.658075202281565907e-10,-7.279909097421266573e-13,1.916600125134726440e-12,1.596066501186044206e-09,-2.331031418237317077e-12,-5.389683057493988017e-12,4.244124607311050568e-09,2.465177173505139763e-09,1.500359975148413127e-10,-1.145480064967951961e-11,4.374497986070480238e-11,3.845004314939615142e-09,-1.183353653781693549e-12,9.784997112701962485e-14,7.526896439458141685e-09,6.890169768070109058e-09,-9.491490370896159268e-15,-2.101140442190008173e-12,-2.907521567800143425e-14,-9.732659123073972296e-12,1.069363264605271979e-09,-1.752098899993059788e-12,-3.673625639799560361e-12,1.086196410593487371e-10,-5.545380127314203378e-12,-1.498048213255387395e-11,1.049431430644176544e-09,3.464795339525039708e-09,8.780014937315172574e-09,-4.066680958203505725e-06,2.265439169590877100e-09
6.712940603392780758e-07,5.819828530206905270e-08,-4.706556672173789480e-11,1.011099329262243884e-10,1.270509102369032917e-07,-1.322292246186407283e-05,-2.514074367354623973e-05,5.153148094905191101e-07,-3.094140765824704431e-07,-6.627882248722016811e-05,-1.133923706220230088e-05,1.472042265859840882e-09,2.903350662109005498e-07,-8.355058311870777743e-11,-8.713855640962719917e-05,7.674174185012816451e-07,5.130768840899690986e-07,1.719050249371356642e-11,-1.524908116445899964e-10,2.530988196802752555e-10,-1.206807764830841734e-09,1.298169678420890705e-07,-1.631074303398705183e-10,-3.284547078763466743e-10,7.524779448431218043e-07,-2.601206749996975987e-10,-1.072954836089934361e-09,7.957525838264700724e-08,2.653113142514484935e-07,2.185748371630324982e-06,-4.222962306812405586e-04,1.986522164543202962e-07
-8.235353976488113403e-02,4.851667210459709167e-03,-4.457331783669360448e-07,3.457799539319239557e-05,-2.478158101439476013e-03,-1.242680009454488754e-04,-4.248150617058854550e-06,-5.403520073741674423e-03,-6.832820177078247070e-02,-1.134933670982718468e-03,-2.657678669493179768e-05,3.058278525713831186e-04,-1.330964826047420502e-02,7.134818133636144921e-06,-3.957388514663762180e-07,-7.203952968120574951e-02,2.312220819294452667e-02,-1.887882899609394372e-05,1.117411011364310980e-05,1.412956294188916218e-06,-6.433782982639968395e-05,-5.075356923043727875e-03,9.499225598119664937e-06,-1.814502752495172899e-06,-4.399657191243022680e-04,-2.231718535767868161e-04,-1.272472127311630175e-05,-6.583901587873697281e-03,6.538684014230966568e-03,9.361126273870468140e-02,3.990100324153900146e-02,3.467727452516555786e-02
1.988321356475353241e-02,9.339020401239395142e-02,9.879589924821630120e-06,-1.114148544729687274e-04,2.907217293977737427e-02,2.972126094391569495e-05,8.599911961937323213e-05,1.439217478036880493e-02,7.548121362924575806e-02,3.316677175462245941e-04,1.877232716651633382e-04,3.475549444556236267e-02,1.016980633139610291e-01,3.803061918006278574e-05,-6.592181307496502995e-05,7.588870078325271606e-02,4.684245586395263672e-02,1.221647494276112411e-06,5.078378308098763227e-05,3.187264548614621162e-03,1.840294426074251533e-04,2.339269779622554779e-02,5.657118890667334199e-05,5.146724288351833820e-05,-7.666842546314001083e-03,9.466509800404310226e-04,8.637356222607195377e-05,6.029055453836917877e-03,7.728245854377746582e-02,3.523095697164535522e-02,1.573396623134613037e-01,4.254769533872604370e-02
2.739581279456615448e-02,-1.234405790455639362e-03,-5.505037492525843845e-08,-7.785062052789726295e-07,-2.216849534306675196e-04,-5.953452841822581831e-07,-4.803898718819255009e-07,1.933205407112836838e-03,-6.452565547078847885e-03,9.164655784843489528e-05,-1.725757215353951324e-06,-1.221185084432363510e-04,-7.352312677539885044e-04,-9.340555493508873042e-07,-5.730980578988464913e-09,-3.290735557675361633e-02,5.022703204303979874e-03,-6.212557764229131863e-06,-1.506998387412750162e-06,-1.315809277002699673e-05,-1.753150172589812428e-06,-2.309698320459574461e-04,-1.606549972166249063e-06,-2.546328516928042518e-07,1.553212205180898309e-04,7.311691092581895646e-07,-9.335190043202601373e-06,-2.051140763796865940e-04,-1.740946434438228607e-03,-1.123462058603763580e-02,8.266559801995754242e-03,4.548613913357257843e-03
2.147921840389699355e-10,-8.061146195004198489e-10,2.700650846617497214e-13,6.922597803153685003e-13,-7.276816371692973462e-10,3.022154466784943150e-13,1.798094876118150331e-12,2.202662531536336843e-11,-3.997064068617106614e-10,-4.029257136273223239e-11,3.438445708714432669e-12,-8.487486408137456806e-11,-9.537223233380132115e-10,-1.432651367601778941e-14,6.907861581335146203e-15,-7.357425224618907578e-10,-5.332813635128275109e-10,4.493033329151232755e-15,9.442963175721602598e-14,-7.160292758018327319e-12,2.644431548737280480e-12,-3.568668693887389054e-10,-4.190644345750636768e-14,1.342162925938028550e-12,-2.141827167012611000e-11,1.472728514660681665e-12,1.105010722680932478e-12,-2.813649591093536628e-10,-1.207263955471660211e-09,-5.046290052490576272e-10,-7.791284284408561689e-10,-4.623024463246139248e-10
-3.997562162112444639e-04,8.455419475694725406e-09,-2.467602511213584648e-11,-7.906818533243153979e-10,1.592876941458598594e-07,-2.453818481740199786e-09,-4.858633981252857836e-11,4.206241044357739156e-07,-3.867793907375016715e-08,1.537033433862688980e-08,-6.842178823518452191e-09,-1.737009114322063397e-08,1.867661723053970491e-07,4.815174994843296474e-11,-2.170750731944615097e-11,2.532337646243831841e-07,7.489094286938779987e-07,-2.006753964389762501e-11,-1.991788262101223950e-10,-2.510138319422594577e-09,-1.477577349362491077e-08,-6.135518759720071102e-08,2.926186723484214269e-11,-8.491062430948659312e-08,1.931640802865786100e-08,-2.331464088456414174e-08,-2.312201319298878843e-09,1.069019788246805547e-07,1.898984294257388683e-07,8.468036867270711809e-07,3.215176320736645721e-07,-7.739095586600797105e-09
6.537684798240661621e-02,2.564875781536102295e-02,3.175532810928416438e-06,-1.180212566396221519e-04,9.591815061867237091e-03,1.866013917606323957e-05,2.801008668029680848e-05,1.011433824896812439e-01,-4.308314993977546692e-02,1.071020727977156639e-03,7.234627992147579789e-05,1.016996335238218307e-02,3.836199268698692322e-02,9.023185157275293022e-06,7.926961984594527166e-07,-3.158157691359519958e-02,2.666120044887065887e-02,5.395079938352864701e-07,1.525225252407835796e-05,1.306299702264368534e-03,1.123175679822452366e-04,8.009935845620930195e-04,1.449115461582550779e-05,1.520622845418984070e-05,-2.889320487156510353e-03,2.786115801427513361e-04,7.848900713725015521e-05,9.071468375623226166e-03,1.694715768098831177e-02,3.249965235590934753e-02,3.990337625145912170e-02,-3.643891587853431702e-02
1.432028114795684814e-01,8.006602525711059570e-02,7.795248166075907648e-06,4.485130193643271923e-05,2.092570252716541290e-02,2.586675327620469034e-05,6.124329229351133108e-05,8.525016158819198608e-02,-6.793683767318725586e-02,-4.223070107400417328e-03,1.846039958763867617e-04,1.868257857859134674e-02,9.308252483606338501e-03,2.711273009481374174e-05,1.141529764936421998e-06,7.146310806274414062e-02,1.454442292451858521e-01,7.259958465510862879e-07,3.494421616778708994e-05,1.939666224643588066e-03,7.078630733303725719e-05,3.081871941685676575e-02,4.418173921294510365e-05,3.988110620412044227e-05,-6.742641795426607132e-03,7.329595391638576984e-04,1.663406146690249443e-04,8.001470007002353668e-03,-4.122070223093032837e-02,-6.107552722096443176e-02,7.467228919267654419e-02,4.120048508048057556e-02
6.675371527671813965e-02,7.768415659666061401e-02,1.843537575041409582e-05,-1.205638254759833217e-04,4.178699478507041931e-02,5.692526247003115714e-05,1.822765043471008539e-04,6.273687630891799927e-02,6.844060122966766357e-02,2.147121704183518887e-04,2.732563007157295942e-04,2.270966023206710815e-02,7.207186520099639893e-02,9.548074740450829268e-05,1.460333898251064966e-08,-1.155432090163230896e-01,6.952069699764251709e-02,-5.394377876655198634e-05,1.561511598993092775e-04,2.763102063909173012e-03,2.037692902376875281e-04,3.367590531706809998e-02,1.487180416006594896e-04,-2.242843765998259187e-04,-1.183147169649600983e-02,7.283917511813342571e-06,4.165893769823014736e-04,-3.514721756801009178e-03,1.076912656426429749e-01,-6.979347765445709229e-02,-1.181802004575729370e-01,-6.378420442342758179e-02
-6.125130131840705872e-02,4.681744426488876343e-02,7.602100595249794424e-06,-1.151941978605464101e-04,2.233643271028995514e-02,-1.052692095981910825e-05,5.948768011876381934e-05,-5.796949192881584167e-02,2.039396949112415314e-02,-1.792153110727667809e-03,1.437277678633108735e-04,-2.912150230258703232e-03,3.214450553059577942e-02,1.912471998366527259e-05,1.868216058937832713e-04,1.378966569900512695e-01,3.719057887792587280e-02,-5.125546636008948553e-07,1.776395220076665282e-05,1.555628259666264057e-04,-4.321724554756656289e-05,-4.625440016388893127e-02,3.278109943494200706e-05,3.174222365487366915e-05,-4.830532707273960114e-03,-1.702075314824469388e-05,1.538080105092376471e-04,6.334449164569377899e-03,4.680212959647178650e-02,7.068911939859390259e-02,-1.125640571117401123e-01,-4.075457155704498291e-02
8.510882034897804260e-04,4.992284998297691345e-02,1.151124888565391302e-05,-9.677893831394612789e-05,1.318623498082160950e-02,4.100342994206584990e-05,8.877020445652306080e-05,-3.372335061430931091e-02,-6.490595173090696335e-03,-1.712923054583370686e-03,2.611274248920381069e-04,8.477475494146347046e-03,4.225829243659973145e-02,3.714958074851892889e-05,1.381233403208170785e-07,1.588755100965499878e-02,9.218912571668624878e-03,8.202100332255213289e-08,4.607990194926969707e-05,1.218502759002149105e-03,2.446044527459889650e-04,1.173467747867107391e-02,5.530115959118120372e-05,6.023821333656087518e-05,-4.940100945532321930e-03,1.076788466889411211e-04,2.337186451768502593e-04,-9.032529778778553009e-03,4.183122888207435608e-02,2.289583720266819000e-02,-7.246068865060806274e-02,-1.750704017467796803e-03
-2.555648237466812134e-02,2.867371775209903717e-02,8.116117896861396730e-06,-3.703942275024019182e-05,1.266106776893138885e-02,2.842107096512336284e-05,6.370476330630481243e-05,-8.269950747489929199e-03,1.755724847316741943e-02,-7.679164991714060307e-04,1.662568829488009214e-04,4.703551530838012695e-03,3.137944266200065613e-02,2.552324076532386243e-05,2.001001604412522283e-07,-5.268590990453958511e-03,1.352839823812246323e-02,1.900367152529724990e-07,3.566509622032754123e-05,8.257624576799571514e-04,1.563350379001349211e-04,1.210592570714652538e-03,3.791010749409906566e-05,4.346765126683749259e-05,-3.851746208965778351e-03,1.062293013092130423e-04,1.723057503113523126e-04,-2.223995747044682503e-03,3.100675158202648163e-02,3.819959703832864761e-03,-1.522788312286138535e-02,-2.244707662612199783e-03
-2.733544446527957916e-02,-9.836924728006124496e-04,-1.678501689639233518e-06,-3.210909198969602585e-06,-4.115936346352100372e-03,3.019028781636734493e-06,-1.271818837267346680e-05,3.045077808201313019e-02,8.109758608043193817e-03,4.521842638496309519e-04,5.447403054859023541e-06,8.651817915961146355e-04,-1.031090971082448959e-02,3.059204573219176382e-06,-1.146724812883803679e-07,9.374478459358215332e-02,-8.352037519216537476e-02,-1.080104254924663110e-07,1.771908273440203629e-06,3.276581992395222187e-04,3.057605135836638510e-05,3.936292231082916260e-02,2.704920234464225359e-06,-4.574732884066179395e-06,-2.946646236523520201e-05,-6.845399911981076002e-05,-2.862612745957449079e-05,-3.558906493708491325e-03,1.184681989252567291e-02,-1.713746413588523865e-02,7.993703708052635193e-03,-2.744756871834397316e-03
2.693554572761058807e-02,4.572642222046852112e-02,5.848576165590202436e-06,-1.648596808081492782e-04,3.286150097846984863e-02,-1.325076368630107027e-06,5.019956734031438828e-05,5.557903647422790527e-02,9.081760793924331665e-02,1.795038580894470215e-03,8.911389886634424329e-05,4.910491406917572021e-03,7.225318253040313721e-02,1.670840538281481713e-05,8.576499510581925279e-09,6.619213521480560303e-02,9.290466457605361938e-02,3.940683157566127193e-08,2.353722265979740769e-05,1.016967347823083401e-03,-5.834751573274843395e-05,3.426173701882362366e-02,4.928291673422791064e-05,3.755120997084304690e-05,-5.329466890543699265e-03,7.345943595282733440e-04,8.718650497030466795e-05,4.523956403136253357e-02,8.824706822633743286e-02,7.606451213359832764e-02,8.056560158729553223e-02,5.989722907543182373e-02
6.038349121809005737e-02,1.767126470804214478e-02,1.686358359620498959e-06,-9.204728994518518448e-04,1.561880297958850861e-02,2.663355262484401464e-04,2.700729783100541681e-05,7.759551703929901123e-02,-1.643880968913435936e-03,1.877774018794298172e-03,3.215952892787754536e-05,1.251593325287103653e-02,3.511576354503631592e-02,6.746264261892065406e-06,9.373453053740377072e-07,-5.373472347855567932e-02,9.460958093404769897e-02,6.595119543817418162e-07,1.591383079357910901e-05,1.492456183768808842e-03,2.667342487256973982e-04,-2.306833304464817047e-02,1.279386287933448330e-05,7.474541689589386806e-06,-1.816709293052554131e-03,3.152917779516428709e-04,-2.432977315038442612e-03,5.013024201616644859e-04,-8.221745956689119339e-04,1.510400176048278809e-01,6.734797358512878418e-02,4.058602824807167053e-02
4.576881602406501770e-02,7.924608886241912842e-03,2.810050318657886237e-06,-5.591739318333566189e-05,1.593978330492973328e-02,5.463877187139587477e-06,2.858674997696653008e-05,-3.863583877682685852e-02,-2.927811071276664734e-02,2.027447335422039032e-03,2.565956674516201019e-05,2.855281811207532883e-03,3.187049552798271179e-02,6.284833034442272037e-06,7.634072062501218170e-06,-7.837410271167755127e-02,-1.738697988912463188e-03,5.558455882237467449e-07,9.582249731465708464e-06,6.383215077221393585e-04,1.557832183607388288e-05,2.804558025673031807e-03,1.010167761705815792e-05,1.608624552318360656e-05,-2.074001589789986610e-03,1.882059405033942312e-05,2.172280364902690053e-04,8.625833317637443542e-03,2.718325518071651459e-02,1.981804147362709045e-02,5.528749525547027588e-02,3.637216612696647644e-02
3.621785715222358704e-02,3.951747342944145203e-02,6.432323061744682491e-06,-9.695985500002279878e-05,1.288903038948774338e-02,6.884474714752286673e-06,5.386161501519382000e-05,-6.511400640010833740e-02,-6.117133423686027527e-02,1.405647926731035113e-04,6.272649625316262245e-05,1.337555120699107647e-03,4.526757821440696716e-02,1.535801311547402292e-05,5.224998676567338407e-05,1.766163110733032227e-02,1.008743792772293091e-01,-9.333762562846459332e-08,1.635362787055782974e-05,5.665178177878260612e-04,2.243868220830336213e-04,7.348302751779556274e-02,2.401662277407012880e-05,2.830838457157369703e-05,-4.429376684129238129e-03,8.387534762732684612e-05,1.259387208847329021e-04,-3.189884498715400696e-02,3.006300516426563263e-02,3.923851251602172852e-02,9.783749468624591827e-03,3.649341687560081482e-02
-1.647159643471240997e-02,2.481657080352306366e-02,4.153440841037081555e-06,-8.785275713307783008e-05,3.266096487641334534e-02,4.324054316384717822e-06,3.821244899882003665e-05,8.574065566062927246e-02,-9.108121506869792938e-03,2.448277315124869347e-03,5.386778138927184045e-05,3.671842394396662712e-03,3.780689090490341187e-02,9.488535397395025939e-06,8.046441735132248141e-07,6.074972078204154968e-02,-4.534588009119033813e-02,1.517701235798085690e-07,1.531036468804813921e-05,9.004815947264432907e-04,1.764564512996003032e-05,-2.524862810969352722e-02,1.489823807787615806e-05,1.974642327695619315e-05,-3.428908996284008026e-03,1.600272953510284424e-04,1.006292513920925558e-04,1.430566422641277313e-02,7.328553497791290283e-02,1.998810842633247375e-02,7.826050370931625366e-02,3.845538571476936340e-02
8.912568539381027222e-02,5.696356669068336487e-02,6.132014277682173997e-06,-1.360295282211154699e-04,2.774433931335806847e-03,2.362565101066138595e-05,5.780870196758769453e-05,-1.211450845003128052e-01,2.068093605339527130e-02,9.549483656883239746e-04,1.278680429095402360e-04,1.928573101758956909e-02,7.819869369268417358e-02,1.993675869016442448e-05,-3.766164008993655443e-04,1.434161663055419922e-01,-2.908809855580329895e-02,9.431851140107028186e-07,3.007742998306639493e-05,2.220098860561847687e-03,1.261262223124504089e-04,1.993726938962936401e-02,3.657540582935325801e-05,3.381425995030440390e-05,-5.955347325652837753e-03,6.721504032611846924e-04,1.381482579745352268e-04,1.367088407278060913e-02,7.746224105358123779e-02,9.788649529218673706e-02,-7.495043426752090454e-02,7.565758377313613892e-02
-2.321543544530868530e-02,-1.056395267369225621e-04,-1.941187122156406986e-07,4.835400886804563925e-06,-3.896224079653620720e-04,-5.356930614652810618e-07,-1.812505615816917270e-06,1.573607884347438812e-02,-3.230546042323112488e-02,1.536004856461659074e-05,-4.505652213993016630e-06,1.692170917522162199e-05,-9.365945123136043549e-03,-8.070705916907172650e-07,-7.500704959966242313e-04,4.850183427333831787e-02,2.550247497856616974e-02,1.359954580948397052e-06,-6.938236083442461677e-07,8.364898462787095923e-07,-7.687008860557398293e-07,2.389384899288415909e-03,-6.578905868082074448e-06,-5.393143055698601529e-06,8.295298175653442740e-05,9.896592382574453950e-05,-3.519974370647105388e-06,-5.079730879515409470e-03,-1.383947022259235382e-02,-6.622710824012756348e-02,5.676955357193946838e-02,-1.364059932529926300e-02
1.008466258645057678e-01,-5.136359110474586487e-02,-4.674891897593624890e-06,9.170150588033720851e-05,-1.907058432698249817e-02,1.421620436303783208e-05,-3.252573151257820427e-05,1.201935708522796631e-01,-5.552688613533973694e-02,2.531828649807721376e-04,-3.959657078667078167e-06,-8.586551994085311890e-04,-5.830334872007369995e-02,-1.491853981860913336e-05,-5.655877544086251874e-07,8.895920962095260620e-02,5.852607637643814087e-02,-1.981648622972898011e-08,-1.401940971845760942e-05,-4.458430339582264423e-04,6.632438271481078118e-06,2.500248141586780548e-02,-2.796545595629140735e-05,-8.543700459995307028e-06,4.192985594272613525e-03,-8.682392945047467947e-05,-3.970592297264374793e-05,-2.204574644565582275e-02,-1.834092289209365845e-02,6.850852817296981812e-02,6.845281273126602173e-02,4.456242173910140991e-02
-6.928886868990957737e-04,9.993593721446814016e-07,-4.707279566140698535e-10,5.018059301420407792e-09,2.912415084210806526e-06,1.366231461297218175e-09,-3.634313072709005610e-09,4.435868322616443038e-05,-3.025885234819725156e-06,1.259642203876865096e-07,-6.993443157909950969e-09,1.499296786278137006e-06,-7.173673566285287961e-07,-2.934414933264406500e-10,9.177463650145156748e-11,-5.720267290598712862e-05,3.399037450435571373e-05,6.953053410807541468e-11,3.916368895851007892e-10,1.917695300335253705e-07,7.461662399066426588e-09,-1.259722694157972001e-06,-4.273048026526282683e-10,-2.547321242829525545e-09,-4.965990285654697800e-08,2.584495284452259511e-08,-1.081369749300620242e-08,1.224611764882865828e-06,1.244069608219433576e-06,2.638221485540270805e-05,-1.036419780575670302e-04,-6.177687055242131464e-07
1.070207655429840088e-01,3.690251708030700684e-02,3.065031705773435533e-06,3.791810377151705325e-05,6.242643110454082489e-03,1.976168641704134643e-05,3.457243656157515943e-05,-1.400512736290693283e-02,5.854222178459167480e-02,-1.109344069845974445e-03,8.445173443760722876e-05,1.428645476698875427e-02,1.783732138574123383e-02,1.265276114281732589e-05,1.079197545550414361e-06,4.447076469659805298e-03,3.630449250340461731e-02,6.419210194508195855e-07,2.029766073974315077e-05,1.605751225724816322e-03,8.915318903746083379e-05,-2.860058471560478210e-02,1.904559394461102784e-05,1.683984555711504072e-05,-2.352000912651419640e-03,-5.787995178252458572e-04,6.404433224815875292e-05,-1.623558066785335541e-02,3.155321627855300903e-02,9.334748238325119019e-02,-1.284891664981842041e-01,3.926658257842063904e-02
1.148857027292251587e-01,-5.735814198851585388e-02,-3.146591780023300089e-06,-3.784719592658802867e-05,-1.850411482155323029e-02,-1.741951200529001653e-05,5.588624117081053555e-05,9.022409468889236450e-02,-4.852398857474327087e-02,2.178962575271725655e-03,-1.223492145072668791e-04,-1.090355869382619858e-02,-5.729620158672332764e-02,-1.487443114456254989e-05,-8.454026101389899850e-07,3.238165006041526794e-02,-2.945564128458499908e-02,6.738080992363393307e-04,-1.618578789930325001e-05,-1.253796857781708241e-03,-7.228013419080525637e-05,-6.892844289541244507e-02,-2.850106284313369542e-05,-1.862207682279404253e-05,3.744410816580057144e-03,-3.012873639818280935e-04,-5.777016849606297910e-05,3.682919777929782867e-03,-7.741166651248931885e-02,8.156321942806243896e-02,-1.040785163640975952e-01,-4.626722633838653564e-02
1.221569180488586426e-01,-2.498197369277477264e-02,-3.278715041687974008e-07,6.489479710580781102e-05,-2.843502908945083618e-02,2.605489498819224536e-06,-1.776061935743200593e-06,1.012032777070999146e-01,-3.440798074007034302e-02,-6.527457153424620628e-04,-2.952090471808332950e-05,3.658447240013629198e-04,-5.495845898985862732e-02,-8.963723303168080747e-06,2.775298924007074675e-07,1.453597657382488251e-02,9.608834981918334961e-02,7.617336450493894517e-08,-1.079372736967343371e-06,-2.662080805748701096e-04,-4.877233368461020291e-05,-1.362424343824386597e-02,-1.452107062505092472e-05,-3.303296125523047522e-06,2.264859154820442200e-03,4.228608668199740350e-05,1.049966158461757004e-05,-1.842256402596831322e-03,-3.963926807045936584e-02,-7.106588780879974365e-02,-7.548424601554870605e-02,-4.305120930075645447e-02
1.212764903903007507e-01,1.434666663408279419e-02,4.928870112053118646e-06,-9.380536357639357448e-05,1.683319360017776489e-02,-2.596452304715057835e-06,4.216301385895349085e-05,-9.825767576694488525e-02,-5.680761858820915222e-02,2.652801806107163429e-03,3.459829531493596733e-05,-3.585167927667498589e-03,2.993810921907424927e-02,7.314150025194976479e-06,-8.369549505005124956e-06,1.523096859455108643e-01,5.764529109001159668e-02,-3.920742892660200596e-05,7.890435881563462317e-06,1.470083807362243533e-04,-7.526978151872754097e-05,1.961503922939300537e-02,1.267921470571309328e-05,1.720710861263796687e-05,-2.926422050222754478e-03,-3.553638862285879441e-06,6.330807809717953205e-05,3.729943558573722839e-02,6.693145632743835449e-02,4.183476790785789490e-02,7.987185567617416382e-02,-1.517692580819129944e-02
4.985479336028220132e-07,2.541859700500026520e-08,-7.032978366350306487e-11,1.448410662241439439e-11,8.588277466969884699e-08,-7.869663948278926568e-11,-2.515825880955446792e-10,1.423808981826368836e-07,-5.271349800750613213e-04,-5.764536126662278548e-06,-4.761272066389210522e-06,5.203699693367980217e-09,1.432076572882579057e-07,-3.526179001567264493e-11,1.781524616717433673e-08,3.525148883909423603e-07,2.434150019325898029e-07,-2.265074655616317045e-10,-6.394134111076255067e-09,-3.390461870367289521e-06,-3.425865702233465981e-10,3.646351132147174212e-08,-7.158266340789865012e-11,-1.071380692496681775e-10,2.222731554368806428e-09,2.285690664516337733e-10,-4.142449716582063957e-10,6.358790471949760104e-08,1.390402104561871965e-07,3.115498827810370130e-07,3.031462370017834473e-07,6.980527444966355688e-08
